digraph Tree {
node [shape=box, style="filled, rounded", color="black", fontname=helvetica] ;
edge [fontname=helvetica] ;
0 [label="X[0] <= 6.5\ngini = 0.66\nsamples = 45075\nvalue = [2167, 7351, 29741, 27586, 4468]", fillcolor="#f5fefc"] ;
1 [label="X[12] <= 0.5\ngini = 0.66\nsamples = 27001\nvalue = [1266, 3510, 14957, 19202, 3738]", fillcolor="#e1e1fb"] ;
0 -> 1 [labeldistance=2.5, labelangle=45, headlabel="True"] ;
2 [label="X[3] <= 0.5\ngini = 0.68\nsamples = 13079\nvalue = [817, 2396, 8361, 7548, 1572]", fillcolor="#f3fdfb"] ;
1 -> 2 ;
3 [label="X[6] <= 0.5\ngini = 0.68\nsamples = 11963\nvalue = [766, 2322, 8043, 6564, 1251]", fillcolor="#e7fcf8"] ;
2 -> 3 ;
4 [label="X[20] <= 0.5\ngini = 0.67\nsamples = 9861\nvalue = [556, 1681, 6604, 5731, 1033]", fillcolor="#edfdfa"] ;
3 -> 4 ;
5 [label="X[13] <= 0.5\ngini = 0.67\nsamples = 8867\nvalue = [496, 1573, 6103, 4992, 865]", fillcolor="#e7fcf8"] ;
4 -> 5 ;
6 [label="X[26] <= 13655.0\ngini = 0.66\nsamples = 7866\nvalue = [428, 1261, 5321, 4665, 799]", fillcolor="#eefdfa"] ;
5 -> 6 ;
7 [label="X[1] <= 6450000.0\ngini = 0.66\nsamples = 7488\nvalue = [414, 1150, 5038, 4536, 744]", fillcolor="#f1fdfb"] ;
6 -> 7 ;
8 [label="X[1] <= 155000.0\ngini = 0.66\nsamples = 5932\nvalue = [361, 856, 3855, 3683, 639]", fillcolor="#f9fefd"] ;
7 -> 8 ;
9 [label="X[24] <= 0.5\ngini = 0.67\nsamples = 5123\nvalue = [319, 766, 3372, 3029, 586]", fillcolor="#f2fdfb"] ;
8 -> 9 ;
10 [label="gini = 0.67\nsamples = 4831\nvalue = [296, 739, 3236, 2838, 508]", fillcolor="#effdfa"] ;
9 -> 10 ;
11 [label="gini = 0.7\nsamples = 292\nvalue = [23, 27, 136, 191, 78]", fillcolor="#ddddfb"] ;
9 -> 11 ;
12 [label="X[23] <= 0.5\ngini = 0.61\nsamples = 809\nvalue = [42, 90, 483, 654, 53]", fillcolor="#d7d7fa"] ;
8 -> 12 ;
13 [label="gini = 0.6\nsamples = 645\nvalue = [30, 67, 354, 553, 44]", fillcolor="#c7c6f8"] ;
12 -> 13 ;
14 [label="gini = 0.63\nsamples = 164\nvalue = [12, 23, 129, 101, 9]", fillcolor="#dffbf6"] ;
12 -> 14 ;
15 [label="X[18] <= 0.5\ngini = 0.64\nsamples = 1556\nvalue = [53, 294, 1183, 853, 105]", fillcolor="#d7faf3"] ;
7 -> 15 ;
16 [label="X[17] <= 0.5\ngini = 0.64\nsamples = 1464\nvalue = [52, 289, 1130, 768, 104]", fillcolor="#d1f9f2"] ;
15 -> 16 ;
17 [label="gini = 0.64\nsamples = 1401\nvalue = [46, 281, 1101, 718, 103]", fillcolor="#cdf8f0"] ;
16 -> 17 ;
18 [label="gini = 0.61\nsamples = 63\nvalue = [6, 8, 29, 50, 1]", fillcolor="#c0bff7"] ;
16 -> 18 ;
19 [label="X[2] <= 118.5\ngini = 0.52\nsamples = 92\nvalue = [1, 5, 53, 85, 1]", fillcolor="#bbbaf6"] ;
15 -> 19 ;
20 [label="gini = 0.56\nsamples = 54\nvalue = [0, 5, 46, 37, 1]", fillcolor="#ddfaf5"] ;
19 -> 20 ;
21 [label="gini = 0.25\nsamples = 38\nvalue = [1, 0, 7, 48, 0]", fillcolor="#5c59e9"] ;
19 -> 21 ;
22 [label="X[5] <= 0.5\ngini = 0.68\nsamples = 378\nvalue = [14, 111, 283, 129, 55]", fillcolor="#bdf6ec"] ;
6 -> 22 ;
23 [label="X[23] <= 0.5\ngini = 0.72\nsamples = 234\nvalue = [7, 79, 152, 94, 50]", fillcolor="#d7faf3"] ;
22 -> 23 ;
24 [label="X[2] <= 92.5\ngini = 0.74\nsamples = 199\nvalue = [7, 71, 116, 89, 48]", fillcolor="#e9fcf9"] ;
23 -> 24 ;
25 [label="gini = 0.69\nsamples = 49\nvalue = [1, 13, 22, 39, 12]", fillcolor="#cccbf8"] ;
24 -> 25 ;
26 [label="gini = 0.73\nsamples = 150\nvalue = [6, 58, 94, 50, 36]", fillcolor="#d9faf4"] ;
24 -> 26 ;
27 [label="X[26] <= 13843.5\ngini = 0.47\nsamples = 35\nvalue = [0, 8, 36, 5, 2]", fillcolor="#7eeed9"] ;
23 -> 27 ;
28 [label="gini = 0.48\nsamples = 11\nvalue = [0, 6, 9, 0, 0]", fillcolor="#bdf6ec"] ;
27 -> 28 ;
29 [label="gini = 0.41\nsamples = 24\nvalue = [0, 2, 27, 5, 2]", fillcolor="#72edd6"] ;
27 -> 29 ;
30 [label="X[1] <= 49500000.0\ngini = 0.56\nsamples = 144\nvalue = [7, 32, 131, 35, 5]", fillcolor="#92f1df"] ;
22 -> 30 ;
31 [label="X[26] <= 14384.5\ngini = 0.53\nsamples = 138\nvalue = [7, 27, 131, 35, 2]", fillcolor="#8df0de"] ;
30 -> 31 ;
32 [label="gini = 0.5\nsamples = 121\nvalue = [7, 18, 123, 31, 2]", fillcolor="#86efdb"] ;
31 -> 32 ;
33 [label="gini = 0.63\nsamples = 17\nvalue = [0, 9, 8, 4, 0]", fillcolor="#f5fdf0"] ;
31 -> 33 ;
34 [label="X[1] <= 95000000.0\ngini = 0.47\nsamples = 6\nvalue = [0, 5, 0, 0, 3]", fillcolor="#caf5b0"] ;
30 -> 34 ;
35 [label="gini = 0.0\nsamples = 4\nvalue = [0, 5, 0, 0, 0]", fillcolor="#7be539"] ;
34 -> 35 ;
36 [label="gini = 0.0\nsamples = 2\nvalue = [0, 0, 0, 0, 3]", fillcolor="#e539c0"] ;
34 -> 36 ;
37 [label="X[5] <= 0.5\ngini = 0.66\nsamples = 1001\nvalue = [68, 312, 782, 327, 66]", fillcolor="#b6f5ea"] ;
5 -> 37 ;
38 [label="X[1] <= 8400000.0\ngini = 0.65\nsamples = 811\nvalue = [55, 212, 653, 290, 49]", fillcolor="#b5f5e9"] ;
37 -> 38 ;
39 [label="X[14] <= 0.5\ngini = 0.68\nsamples = 619\nvalue = [52, 178, 454, 241, 43]", fillcolor="#c5f7ee"] ;
38 -> 39 ;
40 [label="X[26] <= 9527.0\ngini = 0.68\nsamples = 170\nvalue = [10, 18, 103, 94, 30]", fillcolor="#f4fefc"] ;
39 -> 40 ;
41 [label="gini = 0.68\nsamples = 134\nvalue = [9, 15, 64, 85, 23]", fillcolor="#e0e0fb"] ;
40 -> 41 ;
42 [label="gini = 0.52\nsamples = 36\nvalue = [1, 3, 39, 9, 7]", fillcolor="#88efdc"] ;
40 -> 42 ;
43 [label="X[26] <= 11207.5\ngini = 0.66\nsamples = 449\nvalue = [42, 160, 351, 147, 13]", fillcolor="#bbf6eb"] ;
39 -> 43 ;
44 [label="gini = 0.64\nsamples = 371\nvalue = [38, 134, 310, 95, 13]", fillcolor="#b3f5e9"] ;
43 -> 44 ;
45 [label="gini = 0.66\nsamples = 78\nvalue = [4, 26, 41, 52, 0]", fillcolor="#e5e4fc"] ;
43 -> 45 ;
46 [label="X[21] <= 0.5\ngini = 0.49\nsamples = 192\nvalue = [3, 34, 199, 49, 6]", fillcolor="#84efdb"] ;
38 -> 46 ;
47 [label="X[1] <= 24000000.0\ngini = 0.46\nsamples = 174\nvalue = [3, 28, 188, 42, 5]", fillcolor="#7eeed9"] ;
46 -> 47 ;
48 [label="gini = 0.54\nsamples = 79\nvalue = [2, 10, 71, 29, 2]", fillcolor="#9df2e2"] ;
47 -> 48 ;
49 [label="gini = 0.39\nsamples = 95\nvalue = [1, 18, 117, 13, 3]", fillcolor="#6decd4"] ;
47 -> 49 ;
50 [label="X[19] <= 0.5\ngini = 0.67\nsamples = 18\nvalue = [0, 6, 11, 7, 1]", fillcolor="#d3f9f2"] ;
46 -> 50 ;
51 [label="gini = 0.24\nsamples = 4\nvalue = [0, 0, 1, 6, 0]", fillcolor="#5d5ae9"] ;
50 -> 51 ;
52 [label="gini = 0.57\nsamples = 14\nvalue = [0, 6, 10, 1, 1]", fillcolor="#bdf6ec"] ;
50 -> 52 ;
53 [label="X[26] <= 11523.5\ngini = 0.68\nsamples = 190\nvalue = [13, 100, 129, 37, 17]", fillcolor="#e2fbf6"] ;
37 -> 53 ;
54 [label="X[2] <= 111.0\ngini = 0.68\nsamples = 159\nvalue = [11, 97, 96, 35, 13]", fillcolor="#fefffe"] ;
53 -> 54 ;
55 [label="X[21] <= 0.5\ngini = 0.7\nsamples = 125\nvalue = [9, 59, 82, 32, 12]", fillcolor="#ddfbf5"] ;
54 -> 55 ;
56 [label="gini = 0.71\nsamples = 118\nvalue = [9, 59, 72, 32, 12]", fillcolor="#eafcf9"] ;
55 -> 56 ;
57 [label="gini = 0.0\nsamples = 7\nvalue = [0, 0, 10, 0, 0]", fillcolor="#39e5c5"] ;
55 -> 57 ;
58 [label="X[1] <= 44000000.0\ngini = 0.51\nsamples = 34\nvalue = [2, 38, 14, 3, 1]", fillcolor="#b7f193"] ;
54 -> 58 ;
59 [label="gini = 0.61\nsamples = 24\nvalue = [2, 21, 14, 3, 1]", fillcolor="#ddf8cc"] ;
58 -> 59 ;
60 [label="gini = 0.0\nsamples = 10\nvalue = [0, 17, 0, 0, 0]", fillcolor="#7be539"] ;
58 -> 60 ;
61 [label="X[14] <= 0.5\ngini = 0.42\nsamples = 31\nvalue = [2, 3, 33, 2, 4]", fillcolor="#6fecd5"] ;
53 -> 61 ;
62 [label="X[26] <= 14028.0\ngini = 0.16\nsamples = 14\nvalue = [1, 0, 21, 0, 1]", fillcolor="#4be7ca"] ;
61 -> 62 ;
63 [label="gini = 0.09\nsamples = 13\nvalue = [1, 0, 21, 0, 0]", fillcolor="#42e6c8"] ;
62 -> 63 ;
64 [label="gini = 0.0\nsamples = 1\nvalue = [0, 0, 0, 0, 1]", fillcolor="#e539c0"] ;
62 -> 64 ;
65 [label="X[26] <= 13612.0\ngini = 0.62\nsamples = 17\nvalue = [1, 3, 12, 2, 3]", fillcolor="#9cf2e2"] ;
61 -> 65 ;
66 [label="gini = 0.61\nsamples = 4\nvalue = [0, 0, 1, 2, 3]", fillcolor="#f8ceef"] ;
65 -> 66 ;
67 [label="gini = 0.42\nsamples = 13\nvalue = [1, 3, 11, 0, 0]", fillcolor="#7beed8"] ;
65 -> 67 ;
68 [label="X[2] <= 142.5\ngini = 0.66\nsamples = 994\nvalue = [60, 108, 501, 739, 168]", fillcolor="#d4d3f9"] ;
4 -> 68 ;
69 [label="X[1] <= 1057000.0\ngini = 0.66\nsamples = 958\nvalue = [58, 107, 464, 721, 166]", fillcolor="#cfcff9"] ;
68 -> 69 ;
70 [label="X[2] <= 98.5\ngini = 0.68\nsamples = 749\nvalue = [52, 80, 385, 524, 141]", fillcolor="#dddcfa"] ;
69 -> 70 ;
71 [label="X[1] <= 858500.0\ngini = 0.69\nsamples = 441\nvalue = [42, 48, 250, 271, 81]", fillcolor="#f6f6fe"] ;
70 -> 71 ;
72 [label="X[2] <= 95.5\ngini = 0.69\nsamples = 435\nvalue = [38, 48, 250, 271, 76]", fillcolor="#f6f5fe"] ;
71 -> 72 ;
73 [label="gini = 0.69\nsamples = 378\nvalue = [32, 44, 205, 250, 65]", fillcolor="#e9e8fc"] ;
72 -> 73 ;
74 [label="gini = 0.65\nsamples = 57\nvalue = [6, 4, 45, 21, 11]", fillcolor="#b7f6ea"] ;
72 -> 74 ;
75 [label="X[19] <= 0.5\ngini = 0.49\nsamples = 6\nvalue = [4, 0, 0, 0, 5]", fillcolor="#fad7f2"] ;
71 -> 75 ;
76 [label="gini = 0.0\nsamples = 3\nvalue = [0, 0, 0, 0, 5]", fillcolor="#e539c0"] ;
75 -> 76 ;
77 [label="gini = 0.0\nsamples = 3\nvalue = [4, 0, 0, 0, 0]", fillcolor="#e58139"] ;
75 -> 77 ;
78 [label="X[24] <= 0.5\ngini = 0.64\nsamples = 308\nvalue = [10, 32, 135, 253, 60]", fillcolor="#bebdf6"] ;
70 -> 78 ;
79 [label="X[10] <= 0.5\ngini = 0.61\nsamples = 284\nvalue = [8, 24, 127, 240, 44]", fillcolor="#b9b8f6"] ;
78 -> 79 ;
80 [label="gini = 0.61\nsamples = 277\nvalue = [8, 24, 127, 236, 38]", fillcolor="#bab8f6"] ;
79 -> 80 ;
81 [label="gini = 0.48\nsamples = 7\nvalue = [0, 0, 0, 4, 6]", fillcolor="#f6bdea"] ;
79 -> 81 ;
82 [label="X[2] <= 127.5\ngini = 0.75\nsamples = 24\nvalue = [2, 8, 8, 13, 16]", fillcolor="#fdeef9"] ;
78 -> 82 ;
83 [label="gini = 0.72\nsamples = 22\nvalue = [2, 8, 3, 13, 16]", fillcolor="#fcebf8"] ;
82 -> 83 ;
84 [label="gini = 0.0\nsamples = 2\nvalue = [0, 0, 5, 0, 0]", fillcolor="#39e5c5"] ;
82 -> 84 ;
85 [label="X[26] <= 13102.5\ngini = 0.58\nsamples = 209\nvalue = [6, 27, 79, 197, 25]", fillcolor="#a5a3f3"] ;
69 -> 85 ;
86 [label="X[1] <= 140000000.0\ngini = 0.54\nsamples = 183\nvalue = [6, 19, 56, 188, 22]", fillcolor="#9190f0"] ;
85 -> 86 ;
87 [label="X[0] <= 3.5\ngini = 0.52\nsamples = 180\nvalue = [6, 19, 56, 187, 17]", fillcolor="#8f8ef0"] ;
86 -> 87 ;
88 [label="gini = 0.43\nsamples = 96\nvalue = [3, 5, 18, 112, 14]", fillcolor="#7674ed"] ;
87 -> 88 ;
89 [label="gini = 0.59\nsamples = 84\nvalue = [3, 14, 38, 75, 3]", fillcolor="#b3b2f5"] ;
87 -> 89 ;
90 [label="X[0] <= 3.5\ngini = 0.28\nsamples = 3\nvalue = [0, 0, 0, 1, 5]", fillcolor="#ea61cd"] ;
86 -> 90 ;
91 [label="gini = 0.0\nsamples = 1\nvalue = [0, 0, 0, 1, 0]", fillcolor="#3c39e5"] ;
90 -> 91 ;
92 [label="gini = 0.0\nsamples = 2\nvalue = [0, 0, 0, 0, 5]", fillcolor="#e539c0"] ;
90 -> 92 ;
93 [label="X[2] <= 100.5\ngini = 0.63\nsamples = 26\nvalue = [0, 8, 23, 9, 3]", fillcolor="#adf4e7"] ;
85 -> 93 ;
94 [label="X[2] <= 92.5\ngini = 0.57\nsamples = 9\nvalue = [0, 8, 2, 4, 0]", fillcolor="#caf5b0"] ;
93 -> 94 ;
95 [label="gini = 0.38\nsamples = 6\nvalue = [0, 6, 2, 0, 0]", fillcolor="#a7ee7b"] ;
94 -> 95 ;
96 [label="gini = 0.44\nsamples = 3\nvalue = [0, 2, 0, 4, 0]", fillcolor="#9e9cf2"] ;
94 -> 96 ;
97 [label="X[24] <= 0.5\ngini = 0.44\nsamples = 17\nvalue = [0, 0, 21, 5, 3]", fillcolor="#7beed8"] ;
93 -> 97 ;
98 [label="gini = 0.33\nsamples = 15\nvalue = [0, 0, 21, 3, 2]", fillcolor="#64ebd2"] ;
97 -> 98 ;
99 [label="gini = 0.44\nsamples = 2\nvalue = [0, 0, 0, 2, 1]", fillcolor="#9e9cf2"] ;
97 -> 99 ;
100 [label="X[1] <= 18000000.0\ngini = 0.53\nsamples = 36\nvalue = [2, 1, 37, 18, 2]", fillcolor="#a5f3e5"] ;
68 -> 100 ;
101 [label="X[24] <= 0.5\ngini = 0.57\nsamples = 23\nvalue = [1, 0, 17, 18, 2]", fillcolor="#f6f6fe"] ;
100 -> 101 ;
102 [label="X[0] <= 4.5\ngini = 0.5\nsamples = 14\nvalue = [1, 0, 15, 6, 1]", fillcolor="#96f1e0"] ;
101 -> 102 ;
103 [label="X[2] <= 263.5\ngini = 0.4\nsamples = 12\nvalue = [1, 0, 15, 4, 0]", fillcolor="#77edd7"] ;
102 -> 103 ;
104 [label="gini = 0.28\nsamples = 10\nvalue = [0, 0, 15, 3, 0]", fillcolor="#61ead1"] ;
103 -> 104 ;
105 [label="gini = 0.5\nsamples = 2\nvalue = [1, 0, 0, 1, 0]", fillcolor="#ffffff"] ;
103 -> 105 ;
106 [label="X[26] <= 6078.0\ngini = 0.44\nsamples = 2\nvalue = [0, 0, 0, 2, 1]", fillcolor="#9e9cf2"] ;
102 -> 106 ;
107 [label="gini = 0.0\nsamples = 1\nvalue = [0, 0, 0, 0, 1]", fillcolor="#e539c0"] ;
106 -> 107 ;
108 [label="gini = 0.0\nsamples = 1\nvalue = [0, 0, 0, 2, 0]", fillcolor="#3c39e5"] ;
106 -> 108 ;
109 [label="X[19] <= 0.5\ngini = 0.34\nsamples = 9\nvalue = [0, 0, 2, 12, 1]", fillcolor="#6967eb"] ;
101 -> 109 ;
110 [label="X[0] <= 5.0\ngini = 0.24\nsamples = 8\nvalue = [0, 0, 2, 12, 0]", fillcolor="#5d5ae9"] ;
109 -> 110 ;
111 [label="gini = 0.14\nsamples = 7\nvalue = [0, 0, 1, 12, 0]", fillcolor="#4c49e7"] ;
110 -> 111 ;
112 [label="gini = 0.0\nsamples = 1\nvalue = [0, 0, 1, 0, 0]", fillcolor="#39e5c5"] ;
110 -> 112 ;
113 [label="gini = 0.0\nsamples = 1\nvalue = [0, 0, 0, 0, 1]", fillcolor="#e539c0"] ;
109 -> 113 ;
114 [label="X[1] <= 57500000.0\ngini = 0.17\nsamples = 13\nvalue = [1, 1, 20, 0, 0]", fillcolor="#4ce7cb"] ;
100 -> 114 ;
115 [label="X[2] <= 175.5\ngini = 0.09\nsamples = 12\nvalue = [0, 1, 20, 0, 0]", fillcolor="#43e6c8"] ;
114 -> 115 ;
116 [label="gini = 0.0\nsamples = 7\nvalue = [0, 0, 12, 0, 0]", fillcolor="#39e5c5"] ;
115 -> 116 ;
117 [label="X[0] <= 2.0\ngini = 0.2\nsamples = 5\nvalue = [0, 1, 8, 0, 0]", fillcolor="#52e8cc"] ;
115 -> 117 ;
118 [label="gini = 0.0\nsamples = 2\nvalue = [0, 0, 4, 0, 0]", fillcolor="#39e5c5"] ;
117 -> 118 ;
119 [label="gini = 0.32\nsamples = 3\nvalue = [0, 1, 4, 0, 0]", fillcolor="#6aecd4"] ;
117 -> 119 ;
120 [label="gini = 0.0\nsamples = 1\nvalue = [1, 0, 0, 0, 0]", fillcolor="#e58139"] ;
114 -> 120 ;
121 [label="X[1] <= 1225000.0\ngini = 0.71\nsamples = 2102\nvalue = [210, 641, 1439, 833, 218]", fillcolor="#cff9f1"] ;
3 -> 121 ;
122 [label="X[2] <= 98.5\ngini = 0.71\nsamples = 1477\nvalue = [157, 390, 979, 650, 184]", fillcolor="#d9faf4"] ;
121 -> 122 ;
123 [label="X[2] <= 95.5\ngini = 0.73\nsamples = 871\nvalue = [112, 253, 532, 406, 117]", fillcolor="#e6fcf8"] ;
122 -> 123 ;
124 [label="X[1] <= 725000.0\ngini = 0.73\nsamples = 739\nvalue = [95, 184, 450, 364, 105]", fillcolor="#ebfcf9"] ;
123 -> 124 ;
125 [label="X[1] <= 525000.0\ngini = 0.73\nsamples = 723\nvalue = [95, 181, 444, 345, 105]", fillcolor="#e7fcf8"] ;
124 -> 125 ;
126 [label="X[1] <= 337500.0\ngini = 0.73\nsamples = 717\nvalue = [95, 172, 443, 344, 105]", fillcolor="#e7fcf8"] ;
125 -> 126 ;
127 [label="gini = 0.73\nsamples = 704\nvalue = [95, 171, 424, 342, 103]", fillcolor="#ebfcf9"] ;
126 -> 127 ;
128 [label="gini = 0.36\nsamples = 13\nvalue = [0, 1, 19, 2, 2]", fillcolor="#66ebd2"] ;
126 -> 128 ;
129 [label="X[2] <= 79.0\ngini = 0.31\nsamples = 6\nvalue = [0, 9, 1, 1, 0]", fillcolor="#95ea61"] ;
125 -> 129 ;
130 [label="gini = 0.0\nsamples = 1\nvalue = [0, 0, 0, 1, 0]", fillcolor="#3c39e5"] ;
129 -> 130 ;
131 [label="gini = 0.18\nsamples = 5\nvalue = [0, 9, 1, 0, 0]", fillcolor="#8ae84f"] ;
129 -> 131 ;
132 [label="X[10] <= 0.5\ngini = 0.48\nsamples = 16\nvalue = [0, 3, 6, 19, 0]", fillcolor="#8c8af0"] ;
124 -> 132 ;
133 [label="X[26] <= 7507.5\ngini = 0.62\nsamples = 10\nvalue = [0, 3, 6, 8, 0]", fillcolor="#dcdbfa"] ;
132 -> 133 ;
134 [label="gini = 0.61\nsamples = 4\nvalue = [0, 3, 3, 1, 0]", fillcolor="#ffffff"] ;
133 -> 134 ;
135 [label="gini = 0.42\nsamples = 6\nvalue = [0, 0, 3, 7, 0]", fillcolor="#908ef0"] ;
133 -> 135 ;
136 [label="gini = 0.0\nsamples = 6\nvalue = [0, 0, 0, 11, 0]", fillcolor="#3c39e5"] ;
132 -> 136 ;
137 [label="X[26] <= 12912.0\ngini = 0.72\nsamples = 132\nvalue = [17, 69, 82, 42, 12]", fillcolor="#eefdfa"] ;
123 -> 137 ;
138 [label="X[23] <= 0.5\ngini = 0.73\nsamples = 104\nvalue = [17, 67, 52, 30, 11]", fillcolor="#effce7"] ;
137 -> 138 ;
139 [label="X[26] <= 9462.0\ngini = 0.7\nsamples = 82\nvalue = [15, 62, 30, 19, 9]", fillcolor="#d7f7c3"] ;
138 -> 139 ;
140 [label="gini = 0.74\nsamples = 69\nvalue = [15, 44, 28, 19, 8]", fillcolor="#e6fada"] ;
139 -> 140 ;
141 [label="gini = 0.25\nsamples = 13\nvalue = [0, 18, 2, 0, 1]", fillcolor="#90e958"] ;
139 -> 141 ;
142 [label="X[22] <= 0.5\ngini = 0.64\nsamples = 22\nvalue = [2, 5, 22, 11, 2]", fillcolor="#b9f6ea"] ;
138 -> 142 ;
143 [label="gini = 0.69\nsamples = 14\nvalue = [2, 5, 9, 9, 0]", fillcolor="#ffffff"] ;
142 -> 143 ;
144 [label="gini = 0.39\nsamples = 8\nvalue = [0, 0, 13, 2, 2]", fillcolor="#6eecd4"] ;
142 -> 144 ;
145 [label="X[18] <= 0.5\ngini = 0.48\nsamples = 28\nvalue = [0, 2, 30, 12, 1]", fillcolor="#93f1df"] ;
137 -> 145 ;
146 [label="X[26] <= 14386.0\ngini = 0.58\nsamples = 18\nvalue = [0, 2, 15, 11, 1]", fillcolor="#d3f9f2"] ;
145 -> 146 ;
147 [label="gini = 0.61\nsamples = 15\nvalue = [0, 2, 10, 11, 1]", fillcolor="#f1f1fd"] ;
146 -> 147 ;
148 [label="gini = 0.0\nsamples = 3\nvalue = [0, 0, 5, 0, 0]", fillcolor="#39e5c5"] ;
146 -> 148 ;
149 [label="X[1] <= 350000.0\ngini = 0.12\nsamples = 10\nvalue = [0, 0, 15, 1, 0]", fillcolor="#46e7c9"] ;
145 -> 149 ;
150 [label="gini = 0.0\nsamples = 9\nvalue = [0, 0, 15, 0, 0]", fillcolor="#39e5c5"] ;
149 -> 150 ;
151 [label="gini = 0.0\nsamples = 1\nvalue = [0, 0, 0, 1, 0]", fillcolor="#3c39e5"] ;
149 -> 151 ;
152 [label="X[2] <= 112.5\ngini = 0.68\nsamples = 606\nvalue = [45, 137, 447, 244, 67]", fillcolor="#c5f7ee"] ;
122 -> 152 ;
153 [label="X[18] <= 0.5\ngini = 0.66\nsamples = 395\nvalue = [27, 64, 299, 189, 43]", fillcolor="#cdf8f0"] ;
152 -> 153 ;
154 [label="X[2] <= 109.5\ngini = 0.65\nsamples = 333\nvalue = [26, 63, 264, 143, 29]", fillcolor="#c0f7ed"] ;
153 -> 154 ;
155 [label="X[1] <= 127395.0\ngini = 0.62\nsamples = 273\nvalue = [20, 51, 230, 103, 18]", fillcolor="#b0f5e8"] ;
154 -> 155 ;
156 [label="gini = 0.64\nsamples = 263\nvalue = [20, 51, 214, 101, 18]", fillcolor="#b5f5e9"] ;
155 -> 156 ;
157 [label="gini = 0.2\nsamples = 10\nvalue = [0, 0, 16, 2, 0]", fillcolor="#52e8cc"] ;
155 -> 157 ;
158 [label="X[26] <= 12552.5\ngini = 0.71\nsamples = 60\nvalue = [6, 12, 34, 40, 11]", fillcolor="#eeeefd"] ;
154 -> 158 ;
159 [label="gini = 0.66\nsamples = 51\nvalue = [3, 11, 33, 36, 3]", fillcolor="#f4f4fe"] ;
158 -> 159 ;
160 [label="gini = 0.69\nsamples = 9\nvalue = [3, 1, 1, 4, 8]", fillcolor="#f7c2ec"] ;
158 -> 160 ;
161 [label="X[2] <= 106.5\ngini = 0.62\nsamples = 62\nvalue = [1, 1, 35, 46, 14]", fillcolor="#dcdcfa"] ;
153 -> 161 ;
162 [label="X[1] <= 352230.0\ngini = 0.53\nsamples = 39\nvalue = [0, 0, 12, 41, 12]", fillcolor="#9493f1"] ;
161 -> 162 ;
163 [label="gini = 0.48\nsamples = 36\nvalue = [0, 0, 10, 41, 9]", fillcolor="#8684ef"] ;
162 -> 163 ;
164 [label="gini = 0.48\nsamples = 3\nvalue = [0, 0, 2, 0, 3]", fillcolor="#f6bdea"] ;
162 -> 164 ;
165 [label="X[0] <= 5.5\ngini = 0.45\nsamples = 23\nvalue = [1, 1, 23, 5, 2]", fillcolor="#7beed8"] ;
161 -> 165 ;
166 [label="gini = 0.38\nsamples = 21\nvalue = [1, 1, 23, 5, 0]", fillcolor="#70ecd5"] ;
165 -> 166 ;
167 [label="gini = 0.0\nsamples = 2\nvalue = [0, 0, 0, 0, 2]", fillcolor="#e539c0"] ;
165 -> 167 ;
168 [label="X[26] <= 11077.5\ngini = 0.69\nsamples = 211\nvalue = [18, 73, 148, 55, 24]", fillcolor="#c2f7ed"] ;
152 -> 168 ;
169 [label="X[2] <= 134.5\ngini = 0.66\nsamples = 184\nvalue = [11, 59, 144, 48, 21]", fillcolor="#b4f5e9"] ;
168 -> 169 ;
170 [label="X[0] <= 0.5\ngini = 0.62\nsamples = 136\nvalue = [8, 47, 117, 20, 16]", fillcolor="#a9f4e6"] ;
169 -> 170 ;
171 [label="gini = 0.61\nsamples = 15\nvalue = [2, 14, 10, 2, 0]", fillcolor="#e2f9d3"] ;
170 -> 171 ;
172 [label="gini = 0.59\nsamples = 121\nvalue = [6, 33, 107, 18, 16]", fillcolor="#9bf2e2"] ;
170 -> 172 ;
173 [label="X[26] <= 9978.0\ngini = 0.7\nsamples = 48\nvalue = [3, 12, 27, 28, 5]", fillcolor="#fbfbfe"] ;
169 -> 173 ;
174 [label="gini = 0.68\nsamples = 41\nvalue = [3, 10, 16, 28, 3]", fillcolor="#cac9f8"] ;
173 -> 174 ;
175 [label="gini = 0.43\nsamples = 7\nvalue = [0, 2, 11, 0, 2]", fillcolor="#76edd7"] ;
173 -> 175 ;
176 [label="X[26] <= 12927.0\ngini = 0.74\nsamples = 27\nvalue = [7, 14, 4, 7, 3]", fillcolor="#def8ce"] ;
168 -> 176 ;
177 [label="X[26] <= 12816.5\ngini = 0.67\nsamples = 14\nvalue = [7, 7, 2, 0, 2]", fillcolor="#ffffff"] ;
176 -> 177 ;
178 [label="gini = 0.68\nsamples = 13\nvalue = [4, 7, 2, 0, 2]", fillcolor="#dbf8c9"] ;
177 -> 178 ;
179 [label="gini = 0.0\nsamples = 1\nvalue = [3, 0, 0, 0, 0]", fillcolor="#e58139"] ;
177 -> 179 ;
180 [label="X[0] <= 1.5\ngini = 0.64\nsamples = 13\nvalue = [0, 7, 2, 7, 1]", fillcolor="#ffffff"] ;
176 -> 180 ;
181 [label="gini = 0.28\nsamples = 4\nvalue = [0, 5, 1, 0, 0]", fillcolor="#95ea61"] ;
180 -> 181 ;
182 [label="gini = 0.55\nsamples = 9\nvalue = [0, 2, 1, 7, 1]", fillcolor="#9391f1"] ;
180 -> 182 ;
183 [label="X[2] <= 123.5\ngini = 0.68\nsamples = 625\nvalue = [53, 251, 460, 183, 34]", fillcolor="#c6f8ee"] ;
121 -> 183 ;
184 [label="X[1] <= 1450000.0\ngini = 0.64\nsamples = 512\nvalue = [41, 195, 418, 123, 22]", fillcolor="#b6f5ea"] ;
183 -> 184 ;
185 [label="X[0] <= 3.5\ngini = 0.21\nsamples = 10\nvalue = [0, 15, 2, 0, 0]", fillcolor="#8de853"] ;
184 -> 185 ;
186 [label="X[0] <= 2.5\ngini = 0.48\nsamples = 4\nvalue = [0, 3, 2, 0, 0]", fillcolor="#d3f6bd"] ;
185 -> 186 ;
187 [label="X[26] <= 5713.5\ngini = 0.38\nsamples = 3\nvalue = [0, 3, 1, 0, 0]", fillcolor="#a7ee7b"] ;
186 -> 187 ;
188 [label="gini = 0.0\nsamples = 1\nvalue = [0, 2, 0, 0, 0]", fillcolor="#7be539"] ;
187 -> 188 ;
189 [label="gini = 0.5\nsamples = 2\nvalue = [0, 1, 1, 0, 0]", fillcolor="#ffffff"] ;
187 -> 189 ;
190 [label="gini = 0.0\nsamples = 1\nvalue = [0, 0, 1, 0, 0]", fillcolor="#39e5c5"] ;
186 -> 190 ;
191 [label="gini = 0.0\nsamples = 6\nvalue = [0, 12, 0, 0, 0]", fillcolor="#7be539"] ;
185 -> 191 ;
192 [label="X[2] <= 120.5\ngini = 0.64\nsamples = 502\nvalue = [41, 180, 416, 123, 22]", fillcolor="#b1f5e8"] ;
184 -> 192 ;
193 [label="X[20] <= 0.5\ngini = 0.65\nsamples = 478\nvalue = [41, 179, 378, 121, 22]", fillcolor="#b9f6ea"] ;
192 -> 193 ;
194 [label="X[1] <= 2750000.0\ngini = 0.65\nsamples = 476\nvalue = [41, 179, 378, 116, 22]", fillcolor="#b8f6ea"] ;
193 -> 194 ;
195 [label="gini = 0.45\nsamples = 47\nvalue = [0, 7, 48, 13, 0]", fillcolor="#81eeda"] ;
194 -> 195 ;
196 [label="gini = 0.66\nsamples = 429\nvalue = [41, 172, 330, 103, 22]", fillcolor="#c0f7ed"] ;
194 -> 196 ;
197 [label="gini = 0.0\nsamples = 2\nvalue = [0, 0, 0, 5, 0]", fillcolor="#3c39e5"] ;
193 -> 197 ;
198 [label="X[0] <= 5.5\ngini = 0.14\nsamples = 24\nvalue = [0, 1, 38, 2, 0]", fillcolor="#48e7c9"] ;
192 -> 198 ;
199 [label="gini = 0.0\nsamples = 21\nvalue = [0, 0, 37, 0, 0]", fillcolor="#39e5c5"] ;
198 -> 199 ;
200 [label="X[26] <= 5086.0\ngini = 0.62\nsamples = 3\nvalue = [0, 1, 1, 2, 0]", fillcolor="#bebdf6"] ;
198 -> 200 ;
201 [label="gini = 0.0\nsamples = 1\nvalue = [0, 0, 0, 2, 0]", fillcolor="#3c39e5"] ;
200 -> 201 ;
202 [label="gini = 0.5\nsamples = 2\nvalue = [0, 1, 1, 0, 0]", fillcolor="#ffffff"] ;
200 -> 202 ;
203 [label="X[1] <= 7500000.0\ngini = 0.73\nsamples = 113\nvalue = [12, 56, 42, 60, 12]", fillcolor="#f9f9fe"] ;
183 -> 203 ;
204 [label="X[2] <= 132.5\ngini = 0.3\nsamples = 14\nvalue = [0, 2, 2, 19, 0]", fillcolor="#615fea"] ;
203 -> 204 ;
205 [label="X[26] <= 7837.5\ngini = 0.64\nsamples = 5\nvalue = [0, 2, 2, 1, 0]", fillcolor="#ffffff"] ;
204 -> 205 ;
206 [label="X[22] <= 0.5\ngini = 0.5\nsamples = 4\nvalue = [0, 2, 2, 0, 0]", fillcolor="#ffffff"] ;
205 -> 206 ;
207 [label="gini = 0.0\nsamples = 1\nvalue = [0, 0, 1, 0, 0]", fillcolor="#39e5c5"] ;
206 -> 207 ;
208 [label="gini = 0.44\nsamples = 3\nvalue = [0, 2, 1, 0, 0]", fillcolor="#bdf29c"] ;
206 -> 208 ;
209 [label="gini = 0.0\nsamples = 1\nvalue = [0, 0, 0, 1, 0]", fillcolor="#3c39e5"] ;
205 -> 209 ;
210 [label="gini = 0.0\nsamples = 9\nvalue = [0, 0, 0, 18, 0]", fillcolor="#3c39e5"] ;
204 -> 210 ;
211 [label="X[19] <= 0.5\ngini = 0.74\nsamples = 99\nvalue = [12, 54, 40, 41, 12]", fillcolor="#f0fce9"] ;
203 -> 211 ;
212 [label="X[26] <= 5583.0\ngini = 0.74\nsamples = 87\nvalue = [12, 52, 36, 25, 12]", fillcolor="#eafbe0"] ;
211 -> 212 ;
213 [label="X[2] <= 126.0\ngini = 0.68\nsamples = 47\nvalue = [7, 38, 19, 4, 10]", fillcolor="#d4f7bf"] ;
212 -> 213 ;
214 [label="gini = 0.44\nsamples = 11\nvalue = [5, 14, 1, 0, 0]", fillcolor="#b0ef88"] ;
213 -> 214 ;
215 [label="gini = 0.7\nsamples = 36\nvalue = [2, 24, 18, 4, 10]", fillcolor="#ebfbe1"] ;
213 -> 215 ;
216 [label="X[24] <= 0.5\ngini = 0.73\nsamples = 40\nvalue = [5, 14, 17, 21, 2]", fillcolor="#ececfd"] ;
212 -> 216 ;
217 [label="gini = 0.59\nsamples = 25\nvalue = [2, 3, 12, 20, 0]", fillcolor="#c1c0f7"] ;
216 -> 217 ;
218 [label="gini = 0.67\nsamples = 15\nvalue = [3, 11, 5, 1, 2]", fillcolor="#d0f6b9"] ;
216 -> 218 ;
219 [label="X[2] <= 138.0\ngini = 0.43\nsamples = 12\nvalue = [0, 2, 4, 16, 0]", fillcolor="#7d7bee"] ;
211 -> 219 ;
220 [label="gini = 0.0\nsamples = 8\nvalue = [0, 0, 0, 16, 0]", fillcolor="#3c39e5"] ;
219 -> 220 ;
221 [label="X[10] <= 0.5\ngini = 0.44\nsamples = 4\nvalue = [0, 2, 4, 0, 0]", fillcolor="#9cf2e2"] ;
219 -> 221 ;
222 [label="gini = 0.44\nsamples = 2\nvalue = [0, 2, 1, 0, 0]", fillcolor="#bdf29c"] ;
221 -> 222 ;
223 [label="gini = 0.0\nsamples = 2\nvalue = [0, 0, 3, 0, 0]", fillcolor="#39e5c5"] ;
221 -> 223 ;
224 [label="X[6] <= 0.5\ngini = 0.61\nsamples = 1116\nvalue = [51, 74, 318, 984, 321]", fillcolor="#a4a3f3"] ;
2 -> 224 ;
225 [label="X[26] <= 14091.5\ngini = 0.6\nsamples = 1100\nvalue = [38, 68, 316, 982, 317]", fillcolor="#a3a1f3"] ;
224 -> 225 ;
226 [label="X[26] <= 3417.5\ngini = 0.6\nsamples = 1074\nvalue = [38, 67, 297, 971, 310]", fillcolor="#a1a0f2"] ;
225 -> 226 ;
227 [label="X[26] <= 2528.5\ngini = 0.66\nsamples = 352\nvalue = [16, 28, 99, 277, 132]", fillcolor="#bcbbf6"] ;
226 -> 227 ;
228 [label="X[23] <= 0.5\ngini = 0.64\nsamples = 301\nvalue = [16, 28, 82, 252, 94]", fillcolor="#adacf4"] ;
227 -> 228 ;
229 [label="X[26] <= 665.5\ngini = 0.66\nsamples = 271\nvalue = [16, 26, 73, 215, 93]", fillcolor="#b7b6f5"] ;
228 -> 229 ;
230 [label="X[2] <= 104.5\ngini = 0.7\nsamples = 159\nvalue = [11, 16, 53, 108, 59]", fillcolor="#cccbf8"] ;
229 -> 230 ;
231 [label="gini = 0.72\nsamples = 107\nvalue = [10, 7, 46, 59, 36]", fillcolor="#e8e8fc"] ;
230 -> 231 ;
232 [label="gini = 0.61\nsamples = 52\nvalue = [1, 9, 7, 49, 23]", fillcolor="#b2b1f5"] ;
230 -> 232 ;
233 [label="X[2] <= 133.0\ngini = 0.58\nsamples = 112\nvalue = [5, 10, 20, 107, 34]", fillcolor="#9b99f2"] ;
229 -> 233 ;
234 [label="gini = 0.56\nsamples = 105\nvalue = [5, 10, 19, 104, 27]", fillcolor="#9291f0"] ;
233 -> 234 ;
235 [label="gini = 0.51\nsamples = 7\nvalue = [0, 0, 1, 3, 7]", fillcolor="#f29ce0"] ;
233 -> 235 ;
236 [label="X[14] <= 0.5\ngini = 0.39\nsamples = 30\nvalue = [0, 2, 9, 37, 1]", fillcolor="#7774ed"] ;
228 -> 236 ;
237 [label="X[0] <= 2.5\ngini = 0.2\nsamples = 23\nvalue = [0, 0, 3, 32, 1]", fillcolor="#5451e8"] ;
236 -> 237 ;
238 [label="gini = 0.44\nsamples = 8\nvalue = [0, 0, 3, 10, 1]", fillcolor="#8381ee"] ;
237 -> 238 ;
239 [label="gini = 0.0\nsamples = 15\nvalue = [0, 0, 0, 22, 0]", fillcolor="#3c39e5"] ;
237 -> 239 ;
240 [label="X[0] <= 5.5\ngini = 0.62\nsamples = 7\nvalue = [0, 2, 6, 5, 0]", fillcolor="#e6fcf8"] ;
236 -> 240 ;
241 [label="gini = 0.5\nsamples = 6\nvalue = [0, 0, 6, 5, 0]", fillcolor="#defbf5"] ;
240 -> 241 ;
242 [label="gini = 0.0\nsamples = 1\nvalue = [0, 2, 0, 0, 0]", fillcolor="#7be539"] ;
240 -> 242 ;
243 [label="X[26] <= 3108.5\ngini = 0.63\nsamples = 51\nvalue = [0, 0, 17, 25, 38]", fillcolor="#f9d0f0"] ;
227 -> 243 ;
244 [label="X[14] <= 0.5\ngini = 0.42\nsamples = 23\nvalue = [0, 0, 5, 5, 28]", fillcolor="#ed75d3"] ;
243 -> 244 ;
245 [label="X[18] <= 0.5\ngini = 0.37\nsamples = 21\nvalue = [0, 0, 5, 3, 28]", fillcolor="#ec6cd0"] ;
244 -> 245 ;
246 [label="gini = 0.34\nsamples = 20\nvalue = [0, 0, 5, 2, 28]", fillcolor="#eb67cf"] ;
245 -> 246 ;
247 [label="gini = 0.0\nsamples = 1\nvalue = [0, 0, 0, 1, 0]", fillcolor="#3c39e5"] ;
245 -> 247 ;
248 [label="gini = 0.0\nsamples = 2\nvalue = [0, 0, 0, 2, 0]", fillcolor="#3c39e5"] ;
244 -> 248 ;
249 [label="X[2] <= 69.5\ngini = 0.63\nsamples = 28\nvalue = [0, 0, 12, 20, 10]", fillcolor="#cbcaf8"] ;
243 -> 249 ;
250 [label="gini = 0.0\nsamples = 2\nvalue = [0, 0, 0, 0, 4]", fillcolor="#e539c0"] ;
249 -> 250 ;
251 [label="X[2] <= 101.0\ngini = 0.6\nsamples = 26\nvalue = [0, 0, 12, 20, 6]", fillcolor="#c3c2f7"] ;
249 -> 251 ;
252 [label="gini = 0.57\nsamples = 15\nvalue = [0, 0, 12, 10, 2]", fillcolor="#e3fbf7"] ;
251 -> 252 ;
253 [label="gini = 0.41\nsamples = 11\nvalue = [0, 0, 0, 10, 4]", fillcolor="#8a88ef"] ;
251 -> 253 ;
254 [label="X[1] <= 59000000.0\ngini = 0.57\nsamples = 722\nvalue = [22, 39, 198, 694, 178]", fillcolor="#9796f1"] ;
226 -> 254 ;
255 [label="X[26] <= 13792.0\ngini = 0.56\nsamples = 703\nvalue = [16, 39, 186, 683, 176]", fillcolor="#9593f1"] ;
254 -> 255 ;
256 [label="X[24] <= 0.5\ngini = 0.57\nsamples = 681\nvalue = [16, 39, 185, 649, 174]", fillcolor="#9896f1"] ;
255 -> 256 ;
257 [label="X[2] <= 103.5\ngini = 0.55\nsamples = 576\nvalue = [7, 30, 147, 569, 152]", fillcolor="#9391f1"] ;
256 -> 257 ;
258 [label="gini = 0.51\nsamples = 382\nvalue = [5, 17, 88, 405, 91]", fillcolor="#8886ef"] ;
257 -> 258 ;
259 [label="gini = 0.62\nsamples = 194\nvalue = [2, 13, 59, 164, 61]", fillcolor="#aba9f4"] ;
257 -> 259 ;
260 [label="X[1] <= 4.0\ngini = 0.66\nsamples = 105\nvalue = [9, 9, 38, 80, 22]", fillcolor="#bbbaf6"] ;
256 -> 260 ;
261 [label="gini = 0.72\nsamples = 62\nvalue = [7, 6, 29, 36, 18]", fillcolor="#ebeafc"] ;
260 -> 261 ;
262 [label="gini = 0.47\nsamples = 43\nvalue = [2, 3, 9, 44, 4]", fillcolor="#7e7cee"] ;
260 -> 262 ;
263 [label="X[4] <= 0.5\ngini = 0.15\nsamples = 22\nvalue = [0, 0, 1, 34, 2]", fillcolor="#4d4ae7"] ;
255 -> 263 ;
264 [label="X[0] <= 0.5\ngini = 0.11\nsamples = 21\nvalue = [0, 0, 1, 34, 1]", fillcolor="#4744e6"] ;
263 -> 264 ;
265 [label="gini = 0.38\nsamples = 3\nvalue = [0, 0, 0, 3, 1]", fillcolor="#7d7bee"] ;
264 -> 265 ;
266 [label="gini = 0.06\nsamples = 18\nvalue = [0, 0, 1, 31, 0]", fillcolor="#423fe6"] ;
264 -> 266 ;
267 [label="gini = 0.0\nsamples = 1\nvalue = [0, 0, 0, 0, 1]", fillcolor="#e539c0"] ;
263 -> 267 ;
268 [label="X[26] <= 11828.5\ngini = 0.68\nsamples = 19\nvalue = [6, 0, 12, 11, 2]", fillcolor="#f5fefc"] ;
254 -> 268 ;
269 [label="X[1] <= 67500000.0\ngini = 0.59\nsamples = 14\nvalue = [4, 0, 3, 11, 1]", fillcolor="#a4a3f3"] ;
268 -> 269 ;
270 [label="gini = 0.0\nsamples = 2\nvalue = [4, 0, 0, 0, 0]", fillcolor="#e58139"] ;
269 -> 270 ;
271 [label="X[0] <= 0.5\ngini = 0.42\nsamples = 12\nvalue = [0, 0, 3, 11, 1]", fillcolor="#7d7bee"] ;
269 -> 271 ;
272 [label="gini = 0.0\nsamples = 2\nvalue = [0, 0, 3, 0, 0]", fillcolor="#39e5c5"] ;
271 -> 272 ;
273 [label="gini = 0.15\nsamples = 10\nvalue = [0, 0, 0, 11, 1]", fillcolor="#4e4be7"] ;
271 -> 273 ;
274 [label="X[1] <= 145000000.0\ngini = 0.4\nsamples = 5\nvalue = [2, 0, 9, 0, 1]", fillcolor="#74edd6"] ;
268 -> 274 ;
275 [label="X[0] <= 2.0\ngini = 0.18\nsamples = 4\nvalue = [0, 0, 9, 0, 1]", fillcolor="#4fe8cb"] ;
274 -> 275 ;
276 [label="gini = 0.0\nsamples = 1\nvalue = [0, 0, 0, 0, 1]", fillcolor="#e539c0"] ;
275 -> 276 ;
277 [label="gini = 0.0\nsamples = 3\nvalue = [0, 0, 9, 0, 0]", fillcolor="#39e5c5"] ;
275 -> 277 ;
278 [label="gini = 0.0\nsamples = 1\nvalue = [2, 0, 0, 0, 0]", fillcolor="#e58139"] ;
274 -> 278 ;
279 [label="X[2] <= 105.5\ngini = 0.63\nsamples = 26\nvalue = [0, 1, 19, 11, 7]", fillcolor="#c4f7ee"] ;
225 -> 279 ;
280 [label="X[0] <= 4.5\ngini = 0.66\nsamples = 24\nvalue = [0, 1, 15, 11, 7]", fillcolor="#ddfaf5"] ;
279 -> 280 ;
281 [label="X[2] <= 89.0\ngini = 0.66\nsamples = 19\nvalue = [0, 0, 8, 9, 7]", fillcolor="#f3f3fd"] ;
280 -> 281 ;
282 [label="X[0] <= 0.5\ngini = 0.38\nsamples = 2\nvalue = [0, 0, 3, 1, 0]", fillcolor="#7beed8"] ;
281 -> 282 ;
283 [label="gini = 0.0\nsamples = 1\nvalue = [0, 0, 0, 1, 0]", fillcolor="#3c39e5"] ;
282 -> 283 ;
284 [label="gini = 0.0\nsamples = 1\nvalue = [0, 0, 3, 0, 0]", fillcolor="#39e5c5"] ;
282 -> 284 ;
285 [label="X[26] <= 14247.5\ngini = 0.66\nsamples = 17\nvalue = [0, 0, 5, 8, 7]", fillcolor="#f0f0fd"] ;
281 -> 285 ;
286 [label="gini = 0.0\nsamples = 3\nvalue = [0, 0, 0, 0, 4]", fillcolor="#e539c0"] ;
285 -> 286 ;
287 [label="X[0] <= 1.5\ngini = 0.62\nsamples = 14\nvalue = [0, 0, 5, 8, 3]", fillcolor="#cac9f8"] ;
285 -> 287 ;
288 [label="gini = 0.48\nsamples = 5\nvalue = [0, 0, 0, 3, 2]", fillcolor="#bebdf6"] ;
287 -> 288 ;
289 [label="gini = 0.58\nsamples = 9\nvalue = [0, 0, 5, 5, 1]", fillcolor="#ffffff"] ;
287 -> 289 ;
290 [label="X[2] <= 101.5\ngini = 0.46\nsamples = 5\nvalue = [0, 1, 7, 2, 0]", fillcolor="#83efdb"] ;
280 -> 290 ;
291 [label="X[2] <= 85.0\ngini = 0.22\nsamples = 4\nvalue = [0, 1, 7, 0, 0]", fillcolor="#55e9cd"] ;
290 -> 291 ;
292 [label="gini = 0.0\nsamples = 1\nvalue = [0, 1, 0, 0, 0]", fillcolor="#7be539"] ;
291 -> 292 ;
293 [label="gini = 0.0\nsamples = 3\nvalue = [0, 0, 7, 0, 0]", fillcolor="#39e5c5"] ;
291 -> 293 ;
294 [label="gini = 0.0\nsamples = 1\nvalue = [0, 0, 0, 2, 0]", fillcolor="#3c39e5"] ;
290 -> 294 ;
295 [label="gini = 0.0\nsamples = 2\nvalue = [0, 0, 4, 0, 0]", fillcolor="#39e5c5"] ;
279 -> 295 ;
296 [label="X[26] <= 1703.0\ngini = 0.69\nsamples = 16\nvalue = [13, 6, 2, 2, 4]", fillcolor="#f6d5bd"] ;
224 -> 296 ;
297 [label="X[0] <= 3.5\ngini = 0.48\nsamples = 4\nvalue = [0, 0, 0, 2, 3]", fillcolor="#f6bdea"] ;
296 -> 297 ;
298 [label="gini = 0.0\nsamples = 2\nvalue = [0, 0, 0, 0, 3]", fillcolor="#e539c0"] ;
297 -> 298 ;
299 [label="gini = 0.0\nsamples = 2\nvalue = [0, 0, 0, 2, 0]", fillcolor="#3c39e5"] ;
297 -> 299 ;
300 [label="X[0] <= 5.5\ngini = 0.57\nsamples = 12\nvalue = [13, 6, 2, 0, 1]", fillcolor="#f4c8a8"] ;
296 -> 300 ;
301 [label="X[2] <= 110.0\ngini = 0.65\nsamples = 9\nvalue = [7, 6, 2, 0, 1]", fillcolor="#fcf2eb"] ;
300 -> 301 ;
302 [label="X[26] <= 5197.0\ngini = 0.65\nsamples = 8\nvalue = [3, 6, 2, 0, 1]", fillcolor="#d3f6bd"] ;
301 -> 302 ;
303 [label="gini = 0.0\nsamples = 2\nvalue = [0, 3, 0, 0, 0]", fillcolor="#7be539"] ;
302 -> 303 ;
304 [label="X[0] <= 1.5\ngini = 0.72\nsamples = 6\nvalue = [3, 3, 2, 0, 1]", fillcolor="#ffffff"] ;
302 -> 304 ;
305 [label="gini = 0.0\nsamples = 2\nvalue = [3, 0, 0, 0, 0]", fillcolor="#e58139"] ;
304 -> 305 ;
306 [label="X[0] <= 4.0\ngini = 0.61\nsamples = 4\nvalue = [0, 3, 2, 0, 1]", fillcolor="#def8ce"] ;
304 -> 306 ;
307 [label="gini = 0.44\nsamples = 2\nvalue = [0, 0, 2, 0, 1]", fillcolor="#9cf2e2"] ;
306 -> 307 ;
308 [label="gini = 0.0\nsamples = 2\nvalue = [0, 3, 0, 0, 0]", fillcolor="#7be539"] ;
306 -> 308 ;
309 [label="gini = 0.0\nsamples = 1\nvalue = [4, 0, 0, 0, 0]", fillcolor="#e58139"] ;
301 -> 309 ;
310 [label="gini = 0.0\nsamples = 3\nvalue = [6, 0, 0, 0, 0]", fillcolor="#e58139"] ;
300 -> 310 ;
311 [label="X[5] <= 0.5\ngini = 0.62\nsamples = 13922\nvalue = [449, 1114, 6596, 11654, 2166]", fillcolor="#bfbef6"] ;
1 -> 311 ;
312 [label="X[13] <= 0.5\ngini = 0.61\nsamples = 12079\nvalue = [384, 903, 5472, 10384, 1949]", fillcolor="#b9b8f6"] ;
311 -> 312 ;
313 [label="X[6] <= 0.5\ngini = 0.6\nsamples = 11482\nvalue = [360, 823, 5092, 9993, 1872]", fillcolor="#b6b5f5"] ;
312 -> 313 ;
314 [label="X[8] <= 0.5\ngini = 0.6\nsamples = 10943\nvalue = [332, 740, 4779, 9645, 1813]", fillcolor="#b3b2f5"] ;
313 -> 314 ;
315 [label="X[16] <= 0.5\ngini = 0.59\nsamples = 7440\nvalue = [232, 476, 2996, 6783, 1314]", fillcolor="#abaaf4"] ;
314 -> 315 ;
316 [label="X[10] <= 0.5\ngini = 0.6\nsamples = 6167\nvalue = [196, 416, 2495, 5493, 1178]", fillcolor="#afadf4"] ;
315 -> 316 ;
317 [label="X[21] <= 0.5\ngini = 0.6\nsamples = 5305\nvalue = [170, 337, 2043, 4803, 1047]", fillcolor="#aaa9f4"] ;
316 -> 317 ;
318 [label="X[2] <= 122.5\ngini = 0.59\nsamples = 5032\nvalue = [155, 316, 1880, 4600, 1017]", fillcolor="#a8a7f3"] ;
317 -> 318 ;
319 [label="gini = 0.6\nsamples = 4351\nvalue = [135, 279, 1684, 3872, 896]", fillcolor="#adabf4"] ;
318 -> 319 ;
320 [label="gini = 0.52\nsamples = 681\nvalue = [20, 37, 196, 728, 121]", fillcolor="#8c8bf0"] ;
318 -> 320 ;
321 [label="X[9] <= 0.5\ngini = 0.63\nsamples = 273\nvalue = [15, 21, 163, 203, 30]", fillcolor="#e2e2fb"] ;
317 -> 321 ;
322 [label="gini = 0.62\nsamples = 268\nvalue = [15, 14, 162, 203, 30]", fillcolor="#e0e0fb"] ;
321 -> 322 ;
323 [label="gini = 0.22\nsamples = 5\nvalue = [0, 7, 1, 0, 0]", fillcolor="#8ee955"] ;
321 -> 323 ;
324 [label="X[2] <= 116.5\ngini = 0.63\nsamples = 862\nvalue = [26, 79, 452, 690, 131]", fillcolor="#cdccf8"] ;
316 -> 324 ;
325 [label="X[2] <= 100.5\ngini = 0.64\nsamples = 690\nvalue = [22, 69, 396, 520, 95]", fillcolor="#dddcfa"] ;
324 -> 325 ;
326 [label="gini = 0.64\nsamples = 467\nvalue = [19, 51, 231, 372, 79]", fillcolor="#cac9f8"] ;
325 -> 326 ;
327 [label="gini = 0.59\nsamples = 223\nvalue = [3, 18, 165, 148, 16]", fillcolor="#eefdfa"] ;
325 -> 327 ;
328 [label="X[1] <= 2235000.0\ngini = 0.56\nsamples = 172\nvalue = [4, 10, 56, 170, 36]", fillcolor="#9a98f2"] ;
324 -> 328 ;
329 [label="gini = 0.65\nsamples = 106\nvalue = [4, 9, 36, 87, 32]", fillcolor="#b4b2f5"] ;
328 -> 329 ;
330 [label="gini = 0.37\nsamples = 66\nvalue = [0, 1, 20, 83, 4]", fillcolor="#7371ec"] ;
328 -> 330 ;
331 [label="X[0] <= 3.5\ngini = 0.53\nsamples = 1273\nvalue = [36, 60, 501, 1290, 136]", fillcolor="#9a98f2"] ;
315 -> 331 ;
332 [label="X[15] <= 0.5\ngini = 0.5\nsamples = 629\nvalue = [16, 33, 205, 686, 82]", fillcolor="#8c8af0"] ;
331 -> 332 ;
333 [label="X[4] <= 0.5\ngini = 0.5\nsamples = 627\nvalue = [16, 30, 205, 686, 80]", fillcolor="#8b8af0"] ;
332 -> 333 ;
334 [label="gini = 0.49\nsamples = 624\nvalue = [16, 29, 202, 686, 77]", fillcolor="#8a88ef"] ;
333 -> 334 ;
335 [label="gini = 0.61\nsamples = 3\nvalue = [0, 1, 3, 0, 3]", fillcolor="#ffffff"] ;
333 -> 335 ;
336 [label="X[0] <= 0.5\ngini = 0.48\nsamples = 2\nvalue = [0, 3, 0, 0, 2]", fillcolor="#d3f6bd"] ;
332 -> 336 ;
337 [label="gini = 0.0\nsamples = 1\nvalue = [0, 0, 0, 0, 2]", fillcolor="#e539c0"] ;
336 -> 337 ;
338 [label="gini = 0.0\nsamples = 1\nvalue = [0, 3, 0, 0, 0]", fillcolor="#7be539"] ;
336 -> 338 ;
339 [label="X[1] <= 36500000.0\ngini = 0.54\nsamples = 644\nvalue = [20, 27, 296, 604, 54]", fillcolor="#aaa8f4"] ;
331 -> 339 ;
340 [label="X[26] <= 5122.0\ngini = 0.54\nsamples = 599\nvalue = [20, 26, 253, 574, 52]", fillcolor="#a2a0f3"] ;
339 -> 340 ;
341 [label="gini = 0.46\nsamples = 255\nvalue = [9, 6, 79, 272, 22]", fillcolor="#8583ef"] ;
340 -> 341 ;
342 [label="gini = 0.57\nsamples = 344\nvalue = [11, 20, 174, 302, 30]", fillcolor="#bab9f6"] ;
340 -> 342 ;
343 [label="X[2] <= 100.0\ngini = 0.52\nsamples = 45\nvalue = [0, 1, 43, 30, 2]", fillcolor="#c7f8ef"] ;
339 -> 343 ;
344 [label="gini = 0.32\nsamples = 11\nvalue = [0, 0, 2, 13, 1]", fillcolor="#6663eb"] ;
343 -> 344 ;
345 [label="gini = 0.45\nsamples = 34\nvalue = [0, 1, 41, 17, 1]", fillcolor="#90f0df"] ;
343 -> 345 ;
346 [label="X[26] <= 13756.5\ngini = 0.61\nsamples = 3503\nvalue = [100, 264, 1783, 2862, 499]", fillcolor="#c7c6f7"] ;
314 -> 346 ;
347 [label="X[26] <= 13091.5\ngini = 0.61\nsamples = 3341\nvalue = [89, 245, 1670, 2761, 469]", fillcolor="#c3c2f7"] ;
346 -> 347 ;
348 [label="X[24] <= 0.5\ngini = 0.61\nsamples = 3186\nvalue = [81, 228, 1637, 2597, 453]", fillcolor="#c7c6f8"] ;
347 -> 348 ;
349 [label="X[1] <= 4970469.5\ngini = 0.61\nsamples = 2914\nvalue = [76, 207, 1541, 2332, 400]", fillcolor="#cccbf8"] ;
348 -> 349 ;
350 [label="gini = 0.62\nsamples = 2225\nvalue = [70, 158, 1093, 1819, 355]", fillcolor="#c4c3f7"] ;
349 -> 350 ;
351 [label="gini = 0.58\nsamples = 689\nvalue = [6, 49, 448, 513, 45]", fillcolor="#eaeafc"] ;
349 -> 351 ;
352 [label="X[2] <= 90.5\ngini = 0.57\nsamples = 272\nvalue = [5, 21, 96, 265, 53]", fillcolor="#9f9ef2"] ;
348 -> 352 ;
353 [label="gini = 0.49\nsamples = 50\nvalue = [0, 5, 2, 57, 22]", fillcolor="#9493f1"] ;
352 -> 353 ;
354 [label="gini = 0.57\nsamples = 222\nvalue = [5, 16, 94, 208, 31]", fillcolor="#aaa8f4"] ;
352 -> 354 ;
355 [label="X[16] <= 0.5\ngini = 0.5\nsamples = 155\nvalue = [8, 17, 33, 164, 16]", fillcolor="#8280ee"] ;
347 -> 355 ;
356 [label="X[1] <= 4380000.0\ngini = 0.48\nsamples = 153\nvalue = [8, 15, 32, 164, 16]", fillcolor="#807eee"] ;
355 -> 356 ;
357 [label="gini = 0.58\nsamples = 91\nvalue = [8, 13, 20, 82, 10]", fillcolor="#9492f1"] ;
356 -> 357 ;
358 [label="gini = 0.34\nsamples = 62\nvalue = [0, 2, 12, 82, 6]", fillcolor="#6765eb"] ;
356 -> 358 ;
359 [label="X[0] <= 4.0\ngini = 0.44\nsamples = 2\nvalue = [0, 2, 1, 0, 0]", fillcolor="#bdf29c"] ;
355 -> 359 ;
360 [label="gini = 0.0\nsamples = 1\nvalue = [0, 2, 0, 0, 0]", fillcolor="#7be539"] ;
359 -> 360 ;
361 [label="gini = 0.0\nsamples = 1\nvalue = [0, 0, 1, 0, 0]", fillcolor="#39e5c5"] ;
359 -> 361 ;
362 [label="X[14] <= 0.5\ngini = 0.68\nsamples = 162\nvalue = [11, 19, 113, 101, 30]", fillcolor="#f1fdfb"] ;
346 -> 362 ;
363 [label="X[7] <= 0.5\ngini = 0.63\nsamples = 88\nvalue = [7, 9, 77, 43, 12]", fillcolor="#bff7ec"] ;
362 -> 363 ;
364 [label="X[4] <= 0.5\ngini = 0.62\nsamples = 80\nvalue = [7, 9, 75, 33, 12]", fillcolor="#aef4e7"] ;
363 -> 364 ;
365 [label="gini = 0.59\nsamples = 77\nvalue = [4, 9, 75, 32, 9]", fillcolor="#a7f3e5"] ;
364 -> 365 ;
366 [label="gini = 0.61\nsamples = 3\nvalue = [3, 0, 0, 1, 3]", fillcolor="#ffffff"] ;
364 -> 366 ;
367 [label="X[24] <= 0.5\ngini = 0.28\nsamples = 8\nvalue = [0, 0, 2, 10, 0]", fillcolor="#6361ea"] ;
363 -> 367 ;
368 [label="gini = 0.0\nsamples = 6\nvalue = [0, 0, 0, 9, 0]", fillcolor="#3c39e5"] ;
367 -> 368 ;
369 [label="gini = 0.44\nsamples = 2\nvalue = [0, 0, 2, 1, 0]", fillcolor="#9cf2e2"] ;
367 -> 369 ;
370 [label="X[1] <= 25500000.0\ngini = 0.68\nsamples = 74\nvalue = [4, 10, 36, 58, 18]", fillcolor="#cfcff9"] ;
362 -> 370 ;
371 [label="X[26] <= 14244.5\ngini = 0.71\nsamples = 61\nvalue = [2, 10, 33, 36, 18]", fillcolor="#f6f6fe"] ;
370 -> 371 ;
372 [label="gini = 0.71\nsamples = 50\nvalue = [2, 9, 21, 35, 16]", fillcolor="#d3d2f9"] ;
371 -> 372 ;
373 [label="gini = 0.41\nsamples = 11\nvalue = [0, 1, 12, 1, 2]", fillcolor="#72ecd6"] ;
371 -> 373 ;
374 [label="X[1] <= 50000000.0\ngini = 0.32\nsamples = 13\nvalue = [2, 0, 3, 22, 0]", fillcolor="#6562ea"] ;
370 -> 374 ;
375 [label="gini = 0.0\nsamples = 8\nvalue = [0, 0, 0, 19, 0]", fillcolor="#3c39e5"] ;
374 -> 375 ;
376 [label="gini = 0.66\nsamples = 5\nvalue = [2, 0, 3, 3, 0]", fillcolor="#ffffff"] ;
374 -> 376 ;
377 [label="X[2] <= 134.5\ngini = 0.67\nsamples = 539\nvalue = [28, 83, 313, 348, 59]", fillcolor="#f2f2fd"] ;
313 -> 377 ;
378 [label="X[26] <= 14239.0\ngini = 0.67\nsamples = 511\nvalue = [26, 80, 309, 316, 54]", fillcolor="#fcfcff"] ;
377 -> 378 ;
379 [label="X[4] <= 0.5\ngini = 0.66\nsamples = 502\nvalue = [23, 75, 298, 316, 54]", fillcolor="#f8f7fe"] ;
378 -> 379 ;
380 [label="X[21] <= 0.5\ngini = 0.66\nsamples = 498\nvalue = [18, 75, 298, 312, 54]", fillcolor="#f9f9fe"] ;
379 -> 380 ;
381 [label="X[26] <= 13883.0\ngini = 0.66\nsamples = 492\nvalue = [18, 72, 298, 302, 53]", fillcolor="#fdfdff"] ;
380 -> 381 ;
382 [label="gini = 0.66\nsamples = 484\nvalue = [17, 72, 297, 294, 53]", fillcolor="#feffff"] ;
381 -> 382 ;
383 [label="gini = 0.34\nsamples = 8\nvalue = [1, 0, 1, 8, 0]", fillcolor="#6765eb"] ;
381 -> 383 ;
384 [label="X[1] <= 5000000.0\ngini = 0.44\nsamples = 6\nvalue = [0, 3, 0, 10, 1]", fillcolor="#8381ee"] ;
380 -> 384 ;
385 [label="gini = 0.56\nsamples = 3\nvalue = [0, 3, 0, 1, 1]", fillcolor="#bdf29c"] ;
384 -> 385 ;
386 [label="gini = 0.0\nsamples = 3\nvalue = [0, 0, 0, 9, 0]", fillcolor="#3c39e5"] ;
384 -> 386 ;
387 [label="X[26] <= 8725.5\ngini = 0.49\nsamples = 4\nvalue = [5, 0, 0, 4, 0]", fillcolor="#fae6d7"] ;
379 -> 387 ;
388 [label="gini = 0.0\nsamples = 2\nvalue = [0, 0, 0, 4, 0]", fillcolor="#3c39e5"] ;
387 -> 388 ;
389 [label="gini = 0.0\nsamples = 2\nvalue = [5, 0, 0, 0, 0]", fillcolor="#e58139"] ;
387 -> 389 ;
390 [label="X[8] <= 0.5\ngini = 0.57\nsamples = 9\nvalue = [3, 5, 11, 0, 0]", fillcolor="#aaf4e6"] ;
378 -> 390 ;
391 [label="X[0] <= 4.5\ngini = 0.64\nsamples = 6\nvalue = [3, 5, 3, 0, 0]", fillcolor="#def8ce"] ;
390 -> 391 ;
392 [label="gini = 0.0\nsamples = 3\nvalue = [0, 5, 0, 0, 0]", fillcolor="#7be539"] ;
391 -> 392 ;
393 [label="X[1] <= 60000000.0\ngini = 0.5\nsamples = 3\nvalue = [3, 0, 3, 0, 0]", fillcolor="#ffffff"] ;
391 -> 393 ;
394 [label="gini = 0.38\nsamples = 2\nvalue = [3, 0, 1, 0, 0]", fillcolor="#eeab7b"] ;
393 -> 394 ;
395 [label="gini = 0.0\nsamples = 1\nvalue = [0, 0, 2, 0, 0]", fillcolor="#39e5c5"] ;
393 -> 395 ;
396 [label="gini = 0.0\nsamples = 3\nvalue = [0, 0, 8, 0, 0]", fillcolor="#39e5c5"] ;
390 -> 396 ;
397 [label="X[24] <= 0.5\ngini = 0.49\nsamples = 28\nvalue = [2, 3, 4, 32, 5]", fillcolor="#7f7dee"] ;
377 -> 397 ;
398 [label="X[2] <= 309.0\ngini = 0.42\nsamples = 26\nvalue = [0, 3, 3, 32, 5]", fillcolor="#7472ed"] ;
397 -> 398 ;
399 [label="X[0] <= 4.5\ngini = 0.37\nsamples = 24\nvalue = [0, 1, 3, 32, 5]", fillcolor="#6d6aec"] ;
398 -> 399 ;
400 [label="X[23] <= 0.5\ngini = 0.22\nsamples = 19\nvalue = [0, 0, 3, 28, 1]", fillcolor="#5754e9"] ;
399 -> 400 ;
401 [label="gini = 0.18\nsamples = 18\nvalue = [0, 0, 2, 28, 1]", fillcolor="#504de8"] ;
400 -> 401 ;
402 [label="gini = 0.0\nsamples = 1\nvalue = [0, 0, 1, 0, 0]", fillcolor="#39e5c5"] ;
400 -> 402 ;
403 [label="X[1] <= 17500000.0\ngini = 0.59\nsamples = 5\nvalue = [0, 1, 0, 4, 4]", fillcolor="#ffffff"] ;
399 -> 403 ;
404 [label="gini = 0.44\nsamples = 3\nvalue = [0, 0, 0, 2, 4]", fillcolor="#f29ce0"] ;
403 -> 404 ;
405 [label="gini = 0.44\nsamples = 2\nvalue = [0, 1, 0, 2, 0]", fillcolor="#9e9cf2"] ;
403 -> 405 ;
406 [label="gini = 0.0\nsamples = 2\nvalue = [0, 2, 0, 0, 0]", fillcolor="#7be539"] ;
398 -> 406 ;
407 [label="X[0] <= 4.5\ngini = 0.44\nsamples = 2\nvalue = [2, 0, 1, 0, 0]", fillcolor="#f2c09c"] ;
397 -> 407 ;
408 [label="gini = 0.0\nsamples = 1\nvalue = [0, 0, 1, 0, 0]", fillcolor="#39e5c5"] ;
407 -> 408 ;
409 [label="gini = 0.0\nsamples = 1\nvalue = [2, 0, 0, 0, 0]", fillcolor="#e58139"] ;
407 -> 409 ;
410 [label="X[14] <= 0.5\ngini = 0.66\nsamples = 597\nvalue = [24, 80, 380, 391, 77]", fillcolor="#fbfbfe"] ;
312 -> 410 ;
411 [label="X[9] <= 0.5\ngini = 0.61\nsamples = 336\nvalue = [9, 25, 180, 269, 45]", fillcolor="#cdccf8"] ;
410 -> 411 ;
412 [label="X[22] <= 0.5\ngini = 0.61\nsamples = 266\nvalue = [6, 23, 123, 227, 42]", fillcolor="#bbbaf6"] ;
411 -> 412 ;
413 [label="X[2] <= 75.5\ngini = 0.6\nsamples = 258\nvalue = [5, 20, 115, 227, 42]", fillcolor="#b5b4f5"] ;
412 -> 413 ;
414 [label="X[2] <= 37.0\ngini = 0.64\nsamples = 11\nvalue = [2, 0, 10, 3, 4]", fillcolor="#b0f5e8"] ;
413 -> 414 ;
415 [label="X[1] <= 12500.0\ngini = 0.7\nsamples = 6\nvalue = [2, 0, 1, 3, 4]", fillcolor="#fbe3f6"] ;
414 -> 415 ;
416 [label="gini = 0.59\nsamples = 5\nvalue = [0, 0, 1, 3, 4]", fillcolor="#fad7f2"] ;
415 -> 416 ;
417 [label="gini = 0.0\nsamples = 1\nvalue = [2, 0, 0, 0, 0]", fillcolor="#e58139"] ;
415 -> 417 ;
418 [label="gini = 0.0\nsamples = 5\nvalue = [0, 0, 9, 0, 0]", fillcolor="#39e5c5"] ;
414 -> 418 ;
419 [label="X[2] <= 87.5\ngini = 0.59\nsamples = 247\nvalue = [3, 20, 105, 224, 38]", fillcolor="#aeacf4"] ;
413 -> 419 ;
420 [label="X[23] <= 0.5\ngini = 0.53\nsamples = 27\nvalue = [0, 0, 3, 28, 16]", fillcolor="#b4b2f5"] ;
419 -> 420 ;
421 [label="gini = 0.43\nsamples = 23\nvalue = [0, 0, 3, 27, 7]", fillcolor="#7d7bee"] ;
420 -> 421 ;
422 [label="gini = 0.18\nsamples = 4\nvalue = [0, 0, 0, 1, 9]", fillcolor="#e84fc7"] ;
420 -> 422 ;
423 [label="X[15] <= 0.5\ngini = 0.58\nsamples = 220\nvalue = [3, 20, 102, 196, 22]", fillcolor="#b3b2f5"] ;
419 -> 423 ;
424 [label="gini = 0.57\nsamples = 218\nvalue = [3, 20, 102, 195, 17]", fillcolor="#b2b1f5"] ;
423 -> 424 ;
425 [label="gini = 0.28\nsamples = 2\nvalue = [0, 0, 0, 1, 5]", fillcolor="#ea61cd"] ;
423 -> 425 ;
426 [label="X[2] <= 102.5\ngini = 0.49\nsamples = 8\nvalue = [1, 3, 8, 0, 0]", fillcolor="#91f1df"] ;
412 -> 426 ;
427 [label="X[0] <= 2.5\ngini = 0.5\nsamples = 2\nvalue = [1, 1, 0, 0, 0]", fillcolor="#ffffff"] ;
426 -> 427 ;
428 [label="gini = 0.0\nsamples = 1\nvalue = [1, 0, 0, 0, 0]", fillcolor="#e58139"] ;
427 -> 428 ;
429 [label="gini = 0.0\nsamples = 1\nvalue = [0, 1, 0, 0, 0]", fillcolor="#7be539"] ;
427 -> 429 ;
430 [label="X[0] <= 4.0\ngini = 0.32\nsamples = 6\nvalue = [0, 2, 8, 0, 0]", fillcolor="#6aecd4"] ;
426 -> 430 ;
431 [label="X[8] <= 0.5\ngini = 0.44\nsamples = 5\nvalue = [0, 2, 4, 0, 0]", fillcolor="#9cf2e2"] ;
430 -> 431 ;
432 [label="gini = 0.0\nsamples = 3\nvalue = [0, 0, 3, 0, 0]", fillcolor="#39e5c5"] ;
431 -> 432 ;
433 [label="gini = 0.44\nsamples = 2\nvalue = [0, 2, 1, 0, 0]", fillcolor="#bdf29c"] ;
431 -> 433 ;
434 [label="gini = 0.0\nsamples = 1\nvalue = [0, 0, 4, 0, 0]", fillcolor="#39e5c5"] ;
430 -> 434 ;
435 [label="X[2] <= 82.5\ngini = 0.56\nsamples = 70\nvalue = [3, 2, 57, 42, 3]", fillcolor="#d1f9f2"] ;
411 -> 435 ;
436 [label="X[11] <= 0.5\ngini = 0.35\nsamples = 15\nvalue = [1, 0, 20, 2, 2]", fillcolor="#64ebd2"] ;
435 -> 436 ;
437 [label="X[1] <= 375000.0\ngini = 0.09\nsamples = 11\nvalue = [1, 0, 19, 0, 0]", fillcolor="#43e6c8"] ;
436 -> 437 ;
438 [label="X[2] <= 79.0\ngini = 0.44\nsamples = 2\nvalue = [1, 0, 2, 0, 0]", fillcolor="#9cf2e2"] ;
437 -> 438 ;
439 [label="gini = 0.0\nsamples = 1\nvalue = [1, 0, 0, 0, 0]", fillcolor="#e58139"] ;
438 -> 439 ;
440 [label="gini = 0.0\nsamples = 1\nvalue = [0, 0, 2, 0, 0]", fillcolor="#39e5c5"] ;
438 -> 440 ;
441 [label="gini = 0.0\nsamples = 9\nvalue = [0, 0, 17, 0, 0]", fillcolor="#39e5c5"] ;
437 -> 441 ;
442 [label="X[0] <= 5.5\ngini = 0.64\nsamples = 4\nvalue = [0, 0, 1, 2, 2]", fillcolor="#ffffff"] ;
436 -> 442 ;
443 [label="X[0] <= 2.5\ngini = 0.5\nsamples = 3\nvalue = [0, 0, 0, 2, 2]", fillcolor="#ffffff"] ;
442 -> 443 ;
444 [label="gini = 0.0\nsamples = 1\nvalue = [0, 0, 0, 1, 0]", fillcolor="#3c39e5"] ;
443 -> 444 ;
445 [label="gini = 0.44\nsamples = 2\nvalue = [0, 0, 0, 1, 2]", fillcolor="#f29ce0"] ;
443 -> 445 ;
446 [label="gini = 0.0\nsamples = 1\nvalue = [0, 0, 1, 0, 0]", fillcolor="#39e5c5"] ;
442 -> 446 ;
447 [label="X[19] <= 0.5\ngini = 0.56\nsamples = 55\nvalue = [2, 2, 37, 40, 1]", fillcolor="#f2f2fd"] ;
435 -> 447 ;
448 [label="X[2] <= 85.0\ngini = 0.54\nsamples = 43\nvalue = [2, 1, 35, 31, 0]", fillcolor="#eafcf9"] ;
447 -> 448 ;
449 [label="gini = 0.0\nsamples = 1\nvalue = [0, 0, 0, 4, 0]", fillcolor="#3c39e5"] ;
448 -> 449 ;
450 [label="X[26] <= 8272.5\ngini = 0.54\nsamples = 42\nvalue = [2, 1, 35, 27, 0]", fillcolor="#d5faf3"] ;
448 -> 450 ;
451 [label="gini = 0.54\nsamples = 30\nvalue = [2, 0, 23, 23, 0]", fillcolor="#ffffff"] ;
450 -> 451 ;
452 [label="gini = 0.44\nsamples = 12\nvalue = [0, 1, 12, 4, 0]", fillcolor="#85efdb"] ;
450 -> 452 ;
453 [label="X[2] <= 91.0\ngini = 0.49\nsamples = 12\nvalue = [0, 1, 2, 9, 1]", fillcolor="#8381ee"] ;
447 -> 453 ;
454 [label="gini = 0.0\nsamples = 1\nvalue = [0, 1, 0, 0, 0]", fillcolor="#7be539"] ;
453 -> 454 ;
455 [label="X[0] <= 5.5\ngini = 0.4\nsamples = 11\nvalue = [0, 0, 2, 9, 1]", fillcolor="#7674ed"] ;
453 -> 455 ;
456 [label="gini = 0.31\nsamples = 10\nvalue = [0, 0, 1, 9, 1]", fillcolor="#6361ea"] ;
455 -> 456 ;
457 [label="gini = 0.0\nsamples = 1\nvalue = [0, 0, 1, 0, 0]", fillcolor="#39e5c5"] ;
455 -> 457 ;
458 [label="X[26] <= 5057.5\ngini = 0.67\nsamples = 261\nvalue = [15, 55, 200, 122, 32]", fillcolor="#ccf8f0"] ;
410 -> 458 ;
459 [label="X[19] <= 0.5\ngini = 0.58\nsamples = 122\nvalue = [7, 11, 123, 54, 15]", fillcolor="#a7f4e5"] ;
458 -> 459 ;
460 [label="X[20] <= 0.5\ngini = 0.63\nsamples = 101\nvalue = [7, 11, 91, 51, 14]", fillcolor="#bff7ec"] ;
459 -> 460 ;
461 [label="X[26] <= 4324.0\ngini = 0.61\nsamples = 94\nvalue = [5, 11, 91, 43, 13]", fillcolor="#b0f5e8"] ;
460 -> 461 ;
462 [label="X[24] <= 0.5\ngini = 0.64\nsamples = 83\nvalue = [5, 11, 74, 42, 13]", fillcolor="#c1f7ed"] ;
461 -> 462 ;
463 [label="gini = 0.62\nsamples = 75\nvalue = [4, 11, 73, 33, 12]", fillcolor="#b0f5e8"] ;
462 -> 463 ;
464 [label="gini = 0.42\nsamples = 8\nvalue = [1, 0, 1, 9, 1]", fillcolor="#716fec"] ;
462 -> 464 ;
465 [label="X[2] <= 142.0\ngini = 0.1\nsamples = 11\nvalue = [0, 0, 17, 1, 0]", fillcolor="#45e7c8"] ;
461 -> 465 ;
466 [label="gini = 0.0\nsamples = 8\nvalue = [0, 0, 13, 0, 0]", fillcolor="#39e5c5"] ;
465 -> 466 ;
467 [label="gini = 0.32\nsamples = 3\nvalue = [0, 0, 4, 1, 0]", fillcolor="#6aecd4"] ;
465 -> 467 ;
468 [label="X[26] <= 90.5\ngini = 0.43\nsamples = 7\nvalue = [2, 0, 0, 8, 1]", fillcolor="#7d7bee"] ;
460 -> 468 ;
469 [label="X[0] <= 4.0\ngini = 0.44\nsamples = 2\nvalue = [2, 0, 0, 0, 1]", fillcolor="#f2c09c"] ;
468 -> 469 ;
470 [label="gini = 0.0\nsamples = 1\nvalue = [2, 0, 0, 0, 0]", fillcolor="#e58139"] ;
469 -> 470 ;
471 [label="gini = 0.0\nsamples = 1\nvalue = [0, 0, 0, 0, 1]", fillcolor="#e539c0"] ;
469 -> 471 ;
472 [label="gini = 0.0\nsamples = 5\nvalue = [0, 0, 0, 8, 0]", fillcolor="#3c39e5"] ;
468 -> 472 ;
473 [label="X[2] <= 88.5\ngini = 0.2\nsamples = 21\nvalue = [0, 0, 32, 3, 1]", fillcolor="#51e8cc"] ;
459 -> 473 ;
474 [label="gini = 0.0\nsamples = 1\nvalue = [0, 0, 0, 0, 1]", fillcolor="#e539c0"] ;
473 -> 474 ;
475 [label="X[8] <= 0.5\ngini = 0.16\nsamples = 20\nvalue = [0, 0, 32, 3, 0]", fillcolor="#4ce7ca"] ;
473 -> 475 ;
476 [label="gini = 0.0\nsamples = 16\nvalue = [0, 0, 27, 0, 0]", fillcolor="#39e5c5"] ;
475 -> 476 ;
477 [label="X[26] <= 2237.0\ngini = 0.47\nsamples = 4\nvalue = [0, 0, 5, 3, 0]", fillcolor="#b0f5e8"] ;
475 -> 477 ;
478 [label="gini = 0.0\nsamples = 2\nvalue = [0, 0, 0, 3, 0]", fillcolor="#3c39e5"] ;
477 -> 478 ;
479 [label="gini = 0.0\nsamples = 2\nvalue = [0, 0, 5, 0, 0]", fillcolor="#39e5c5"] ;
477 -> 479 ;
480 [label="X[26] <= 6128.5\ngini = 0.72\nsamples = 139\nvalue = [8, 44, 77, 68, 17]", fillcolor="#f3fdfb"] ;
458 -> 480 ;
481 [label="X[26] <= 5326.0\ngini = 0.41\nsamples = 12\nvalue = [0, 1, 3, 15, 1]", fillcolor="#7573ed"] ;
480 -> 481 ;
482 [label="X[0] <= 3.5\ngini = 0.67\nsamples = 5\nvalue = [0, 1, 3, 4, 1]", fillcolor="#dedefb"] ;
481 -> 482 ;
483 [label="X[0] <= 2.0\ngini = 0.32\nsamples = 2\nvalue = [0, 1, 0, 4, 0]", fillcolor="#6d6aec"] ;
482 -> 483 ;
484 [label="gini = 0.0\nsamples = 1\nvalue = [0, 1, 0, 0, 0]", fillcolor="#7be539"] ;
483 -> 484 ;
485 [label="gini = 0.0\nsamples = 1\nvalue = [0, 0, 0, 4, 0]", fillcolor="#3c39e5"] ;
483 -> 485 ;
486 [label="X[0] <= 5.5\ngini = 0.38\nsamples = 3\nvalue = [0, 0, 3, 0, 1]", fillcolor="#7beed8"] ;
482 -> 486 ;
487 [label="gini = 0.0\nsamples = 2\nvalue = [0, 0, 3, 0, 0]", fillcolor="#39e5c5"] ;
486 -> 487 ;
488 [label="gini = 0.0\nsamples = 1\nvalue = [0, 0, 0, 0, 1]", fillcolor="#e539c0"] ;
486 -> 488 ;
489 [label="gini = 0.0\nsamples = 7\nvalue = [0, 0, 0, 11, 0]", fillcolor="#3c39e5"] ;
481 -> 489 ;
490 [label="X[1] <= 10250000.0\ngini = 0.72\nsamples = 127\nvalue = [8, 43, 74, 53, 16]", fillcolor="#e2fbf6"] ;
480 -> 490 ;
491 [label="X[1] <= 7750000.0\ngini = 0.74\nsamples = 98\nvalue = [7, 42, 49, 40, 14]", fillcolor="#f2fdfb"] ;
490 -> 491 ;
492 [label="X[26] <= 12235.5\ngini = 0.74\nsamples = 93\nvalue = [7, 33, 48, 40, 14]", fillcolor="#effdfa"] ;
491 -> 492 ;
493 [label="gini = 0.71\nsamples = 74\nvalue = [6, 15, 44, 34, 10]", fillcolor="#e5fcf7"] ;
492 -> 493 ;
494 [label="gini = 0.64\nsamples = 19\nvalue = [1, 18, 4, 6, 4]", fillcolor="#c4f3a7"] ;
492 -> 494 ;
495 [label="X[0] <= 4.5\ngini = 0.18\nsamples = 5\nvalue = [0, 9, 1, 0, 0]", fillcolor="#8ae84f"] ;
491 -> 495 ;
496 [label="gini = 0.0\nsamples = 4\nvalue = [0, 9, 0, 0, 0]", fillcolor="#7be539"] ;
495 -> 496 ;
497 [label="gini = 0.0\nsamples = 1\nvalue = [0, 0, 1, 0, 0]", fillcolor="#39e5c5"] ;
495 -> 497 ;
498 [label="X[26] <= 12743.5\ngini = 0.55\nsamples = 29\nvalue = [1, 1, 25, 13, 2]", fillcolor="#adf4e7"] ;
490 -> 498 ;
499 [label="X[0] <= 4.5\ngini = 0.59\nsamples = 19\nvalue = [1, 0, 10, 13, 2]", fillcolor="#dadafa"] ;
498 -> 499 ;
500 [label="gini = 0.57\nsamples = 15\nvalue = [1, 0, 6, 13, 2]", fillcolor="#aaa8f4"] ;
499 -> 500 ;
501 [label="gini = 0.0\nsamples = 4\nvalue = [0, 0, 4, 0, 0]", fillcolor="#39e5c5"] ;
499 -> 501 ;
502 [label="X[2] <= 134.0\ngini = 0.12\nsamples = 10\nvalue = [0, 1, 15, 0, 0]", fillcolor="#46e7c9"] ;
498 -> 502 ;
503 [label="gini = 0.0\nsamples = 8\nvalue = [0, 0, 12, 0, 0]", fillcolor="#39e5c5"] ;
502 -> 503 ;
504 [label="gini = 0.38\nsamples = 2\nvalue = [0, 1, 3, 0, 0]", fillcolor="#7beed8"] ;
502 -> 504 ;
505 [label="X[1] <= 15750000.0\ngini = 0.64\nsamples = 1843\nvalue = [65, 211, 1124, 1270, 217]", fillcolor="#efeffd"] ;
311 -> 505 ;
506 [label="X[10] <= 0.5\ngini = 0.65\nsamples = 1545\nvalue = [59, 193, 882, 1100, 205]", fillcolor="#e4e3fb"] ;
505 -> 506 ;
507 [label="X[13] <= 0.5\ngini = 0.65\nsamples = 832\nvalue = [36, 100, 403, 643, 122]", fillcolor="#cbcaf8"] ;
506 -> 507 ;
508 [label="X[26] <= 13682.5\ngini = 0.64\nsamples = 765\nvalue = [31, 83, 350, 617, 119]", fillcolor="#c2c1f7"] ;
507 -> 508 ;
509 [label="X[14] <= 0.5\ngini = 0.63\nsamples = 722\nvalue = [31, 81, 312, 594, 117]", fillcolor="#bcbbf6"] ;
508 -> 509 ;
510 [label="X[4] <= 0.5\ngini = 0.63\nsamples = 621\nvalue = [30, 68, 244, 533, 108]", fillcolor="#b3b2f5"] ;
509 -> 510 ;
511 [label="X[16] <= 0.5\ngini = 0.62\nsamples = 607\nvalue = [29, 63, 242, 523, 95]", fillcolor="#b2b1f5"] ;
510 -> 511 ;
512 [label="gini = 0.6\nsamples = 491\nvalue = [26, 51, 195, 439, 58]", fillcolor="#acabf4"] ;
511 -> 512 ;
513 [label="gini = 0.68\nsamples = 116\nvalue = [3, 12, 47, 84, 37]", fillcolor="#cac9f8"] ;
511 -> 513 ;
514 [label="X[9] <= 0.5\ngini = 0.69\nsamples = 14\nvalue = [1, 5, 2, 10, 13]", fillcolor="#fbe3f6"] ;
510 -> 514 ;
515 [label="gini = 0.52\nsamples = 9\nvalue = [1, 0, 2, 4, 13]", fillcolor="#f090dc"] ;
514 -> 515 ;
516 [label="gini = 0.5\nsamples = 5\nvalue = [0, 5, 0, 6, 0]", fillcolor="#dedefb"] ;
514 -> 516 ;
517 [label="X[16] <= 0.5\ngini = 0.63\nsamples = 101\nvalue = [1, 13, 68, 61, 9]", fillcolor="#f0fdfb"] ;
509 -> 517 ;
518 [label="X[26] <= 11881.0\ngini = 0.6\nsamples = 75\nvalue = [1, 11, 58, 33, 4]", fillcolor="#bcf6eb"] ;
517 -> 518 ;
519 [label="gini = 0.58\nsamples = 70\nvalue = [1, 11, 58, 25, 4]", fillcolor="#a7f3e5"] ;
518 -> 519 ;
520 [label="gini = 0.0\nsamples = 5\nvalue = [0, 0, 0, 8, 0]", fillcolor="#3c39e5"] ;
518 -> 520 ;
521 [label="X[23] <= 0.5\ngini = 0.55\nsamples = 26\nvalue = [0, 2, 10, 28, 5]", fillcolor="#9b99f2"] ;
517 -> 521 ;
522 [label="gini = 0.48\nsamples = 23\nvalue = [0, 2, 5, 28, 5]", fillcolor="#7f7dee"] ;
521 -> 522 ;
523 [label="gini = 0.0\nsamples = 3\nvalue = [0, 0, 5, 0, 0]", fillcolor="#39e5c5"] ;
521 -> 523 ;
524 [label="X[2] <= 115.5\ngini = 0.53\nsamples = 43\nvalue = [0, 2, 38, 23, 2]", fillcolor="#b8f6ea"] ;
508 -> 524 ;
525 [label="X[8] <= 0.5\ngini = 0.56\nsamples = 29\nvalue = [0, 1, 20, 21, 2]", fillcolor="#f7f7fe"] ;
524 -> 525 ;
526 [label="X[9] <= 0.5\ngini = 0.54\nsamples = 25\nvalue = [0, 1, 20, 15, 1]", fillcolor="#d2f9f2"] ;
525 -> 526 ;
527 [label="gini = 0.49\nsamples = 16\nvalue = [0, 0, 11, 14, 0]", fillcolor="#d5d5f9"] ;
526 -> 527 ;
528 [label="gini = 0.42\nsamples = 9\nvalue = [0, 1, 9, 1, 1]", fillcolor="#6fecd5"] ;
526 -> 528 ;
529 [label="X[0] <= 1.5\ngini = 0.24\nsamples = 4\nvalue = [0, 0, 0, 6, 1]", fillcolor="#5d5ae9"] ;
525 -> 529 ;
530 [label="gini = 0.0\nsamples = 1\nvalue = [0, 0, 0, 0, 1]", fillcolor="#e539c0"] ;
529 -> 530 ;
531 [label="gini = 0.0\nsamples = 3\nvalue = [0, 0, 0, 6, 0]", fillcolor="#3c39e5"] ;
529 -> 531 ;
532 [label="X[2] <= 197.5\ngini = 0.25\nsamples = 14\nvalue = [0, 1, 18, 2, 0]", fillcolor="#58e9ce"] ;
524 -> 532 ;
533 [label="gini = 0.0\nsamples = 9\nvalue = [0, 0, 15, 0, 0]", fillcolor="#39e5c5"] ;
532 -> 533 ;
534 [label="X[0] <= 3.5\ngini = 0.61\nsamples = 5\nvalue = [0, 1, 3, 2, 0]", fillcolor="#cef8f0"] ;
532 -> 534 ;
535 [label="gini = 0.44\nsamples = 3\nvalue = [0, 1, 0, 2, 0]", fillcolor="#9e9cf2"] ;
534 -> 535 ;
536 [label="gini = 0.0\nsamples = 2\nvalue = [0, 0, 3, 0, 0]", fillcolor="#39e5c5"] ;
534 -> 536 ;
537 [label="X[26] <= 8691.5\ngini = 0.65\nsamples = 67\nvalue = [5, 17, 53, 26, 3]", fillcolor="#baf6eb"] ;
507 -> 537 ;
538 [label="X[2] <= 119.5\ngini = 0.55\nsamples = 41\nvalue = [5, 6, 40, 12, 0]", fillcolor="#92f1df"] ;
537 -> 538 ;
539 [label="X[0] <= 3.5\ngini = 0.47\nsamples = 37\nvalue = [2, 5, 39, 10, 0]", fillcolor="#82efda"] ;
538 -> 539 ;
540 [label="X[26] <= 1489.5\ngini = 0.6\nsamples = 22\nvalue = [1, 5, 18, 9, 0]", fillcolor="#b5f5e9"] ;
539 -> 540 ;
541 [label="gini = 0.49\nsamples = 11\nvalue = [0, 0, 7, 9, 0]", fillcolor="#d4d3f9"] ;
540 -> 541 ;
542 [label="gini = 0.49\nsamples = 11\nvalue = [1, 5, 11, 0, 0]", fillcolor="#9cf2e2"] ;
540 -> 542 ;
543 [label="X[26] <= 6091.5\ngini = 0.16\nsamples = 15\nvalue = [1, 0, 21, 1, 0]", fillcolor="#4be7ca"] ;
539 -> 543 ;
544 [label="gini = 0.09\nsamples = 14\nvalue = [0, 0, 21, 1, 0]", fillcolor="#42e6c8"] ;
543 -> 544 ;
545 [label="gini = 0.0\nsamples = 1\nvalue = [1, 0, 0, 0, 0]", fillcolor="#e58139"] ;
543 -> 545 ;
546 [label="X[26] <= 2387.5\ngini = 0.69\nsamples = 4\nvalue = [3, 1, 1, 2, 0]", fillcolor="#fae6d7"] ;
538 -> 546 ;
547 [label="X[0] <= 2.0\ngini = 0.56\nsamples = 3\nvalue = [3, 1, 1, 0, 0]", fillcolor="#f2c09c"] ;
546 -> 547 ;
548 [label="gini = 0.0\nsamples = 1\nvalue = [0, 0, 1, 0, 0]", fillcolor="#39e5c5"] ;
547 -> 548 ;
549 [label="gini = 0.38\nsamples = 2\nvalue = [3, 1, 0, 0, 0]", fillcolor="#eeab7b"] ;
547 -> 549 ;
550 [label="gini = 0.0\nsamples = 1\nvalue = [0, 0, 0, 2, 0]", fillcolor="#3c39e5"] ;
546 -> 550 ;
551 [label="X[1] <= 127500.0\ngini = 0.71\nsamples = 26\nvalue = [0, 11, 13, 14, 3]", fillcolor="#f8f8fe"] ;
537 -> 551 ;
552 [label="X[23] <= 0.5\ngini = 0.65\nsamples = 19\nvalue = [0, 3, 10, 14, 3]", fillcolor="#d8d7fa"] ;
551 -> 552 ;
553 [label="X[14] <= 0.5\ngini = 0.62\nsamples = 10\nvalue = [0, 2, 9, 3, 2]", fillcolor="#a4f3e4"] ;
552 -> 553 ;
554 [label="gini = 0.38\nsamples = 8\nvalue = [0, 0, 9, 3, 0]", fillcolor="#7beed8"] ;
553 -> 554 ;
555 [label="gini = 0.5\nsamples = 2\nvalue = [0, 2, 0, 0, 2]", fillcolor="#ffffff"] ;
553 -> 555 ;
556 [label="X[0] <= 0.5\ngini = 0.37\nsamples = 9\nvalue = [0, 1, 1, 11, 1]", fillcolor="#6967eb"] ;
552 -> 556 ;
557 [label="gini = 0.5\nsamples = 2\nvalue = [0, 0, 1, 0, 1]", fillcolor="#ffffff"] ;
556 -> 557 ;
558 [label="gini = 0.15\nsamples = 7\nvalue = [0, 1, 0, 11, 0]", fillcolor="#4e4be7"] ;
556 -> 558 ;
559 [label="X[24] <= 0.5\ngini = 0.4\nsamples = 7\nvalue = [0, 8, 3, 0, 0]", fillcolor="#acef83"] ;
551 -> 559 ;
560 [label="X[0] <= 3.5\ngini = 0.2\nsamples = 5\nvalue = [0, 8, 1, 0, 0]", fillcolor="#8ce852"] ;
559 -> 560 ;
561 [label="gini = 0.44\nsamples = 2\nvalue = [0, 2, 1, 0, 0]", fillcolor="#bdf29c"] ;
560 -> 561 ;
562 [label="gini = 0.0\nsamples = 3\nvalue = [0, 6, 0, 0, 0]", fillcolor="#7be539"] ;
560 -> 562 ;
563 [label="gini = 0.0\nsamples = 2\nvalue = [0, 0, 2, 0, 0]", fillcolor="#39e5c5"] ;
559 -> 563 ;
564 [label="X[26] <= 13595.5\ngini = 0.65\nsamples = 713\nvalue = [23, 93, 479, 457, 83]", fillcolor="#f9fefd"] ;
506 -> 564 ;
565 [label="X[7] <= 0.5\ngini = 0.64\nsamples = 681\nvalue = [20, 88, 450, 453, 76]", fillcolor="#fefeff"] ;
564 -> 565 ;
566 [label="X[2] <= 98.5\ngini = 0.64\nsamples = 644\nvalue = [20, 88, 439, 419, 66]", fillcolor="#f9fefd"] ;
565 -> 566 ;
567 [label="X[2] <= 88.5\ngini = 0.65\nsamples = 355\nvalue = [12, 51, 217, 259, 46]", fillcolor="#e9e8fc"] ;
566 -> 567 ;
568 [label="X[18] <= 0.5\ngini = 0.64\nsamples = 146\nvalue = [2, 19, 112, 82, 23]", fillcolor="#d9faf4"] ;
567 -> 568 ;
569 [label="gini = 0.63\nsamples = 129\nvalue = [2, 19, 110, 60, 19]", fillcolor="#bdf6ec"] ;
568 -> 569 ;
570 [label="gini = 0.36\nsamples = 17\nvalue = [0, 0, 2, 22, 4]", fillcolor="#6d6bec"] ;
568 -> 570 ;
571 [label="X[2] <= 89.5\ngini = 0.63\nsamples = 209\nvalue = [10, 32, 105, 177, 23]", fillcolor="#c5c4f7"] ;
567 -> 571 ;
572 [label="gini = 0.33\nsamples = 14\nvalue = [0, 0, 2, 21, 3]", fillcolor="#6664eb"] ;
571 -> 572 ;
573 [label="gini = 0.65\nsamples = 195\nvalue = [10, 32, 103, 156, 20]", fillcolor="#d0cff9"] ;
571 -> 573 ;
574 [label="X[2] <= 102.5\ngini = 0.62\nsamples = 289\nvalue = [8, 37, 222, 160, 20]", fillcolor="#d4f9f2"] ;
566 -> 574 ;
575 [label="X[26] <= 11376.0\ngini = 0.44\nsamples = 55\nvalue = [0, 6, 70, 19, 2]", fillcolor="#7eeed9"] ;
574 -> 575 ;
576 [label="gini = 0.32\nsamples = 41\nvalue = [0, 4, 59, 7, 2]", fillcolor="#61ead1"] ;
575 -> 576 ;
577 [label="gini = 0.57\nsamples = 14\nvalue = [0, 2, 11, 12, 0]", fillcolor="#f1f1fd"] ;
575 -> 577 ;
578 [label="X[23] <= 0.5\ngini = 0.64\nsamples = 234\nvalue = [8, 31, 152, 141, 18]", fillcolor="#f5fefc"] ;
574 -> 578 ;
579 [label="gini = 0.64\nsamples = 221\nvalue = [6, 31, 151, 127, 17]", fillcolor="#e8fcf8"] ;
578 -> 579 ;
580 [label="gini = 0.38\nsamples = 13\nvalue = [2, 0, 1, 14, 1]", fillcolor="#6d6aec"] ;
578 -> 580 ;
581 [label="X[2] <= 102.5\ngini = 0.54\nsamples = 37\nvalue = [0, 0, 11, 34, 10]", fillcolor="#9998f1"] ;
565 -> 581 ;
582 [label="X[0] <= 3.5\ngini = 0.63\nsamples = 25\nvalue = [0, 0, 10, 17, 8]", fillcolor="#c8c8f8"] ;
581 -> 582 ;
583 [label="X[26] <= 5497.0\ngini = 0.55\nsamples = 12\nvalue = [0, 0, 1, 8, 7]", fillcolor="#e9e9fc"] ;
582 -> 583 ;
584 [label="gini = 0.0\nsamples = 4\nvalue = [0, 0, 0, 0, 5]", fillcolor="#e539c0"] ;
583 -> 584 ;
585 [label="gini = 0.43\nsamples = 8\nvalue = [0, 0, 1, 8, 2]", fillcolor="#7d7bee"] ;
583 -> 585 ;
586 [label="X[8] <= 0.5\ngini = 0.55\nsamples = 13\nvalue = [0, 0, 9, 9, 1]", fillcolor="#ffffff"] ;
582 -> 586 ;
587 [label="gini = 0.54\nsamples = 12\nvalue = [0, 0, 6, 9, 1]", fillcolor="#c4c4f7"] ;
586 -> 587 ;
588 [label="gini = 0.0\nsamples = 1\nvalue = [0, 0, 3, 0, 0]", fillcolor="#39e5c5"] ;
586 -> 588 ;
589 [label="X[0] <= 0.5\ngini = 0.26\nsamples = 12\nvalue = [0, 0, 1, 17, 2]", fillcolor="#5d5ae9"] ;
581 -> 589 ;
590 [label="gini = 0.0\nsamples = 1\nvalue = [0, 0, 1, 0, 0]", fillcolor="#39e5c5"] ;
589 -> 590 ;
591 [label="X[26] <= 4062.5\ngini = 0.19\nsamples = 11\nvalue = [0, 0, 0, 17, 2]", fillcolor="#5350e8"] ;
589 -> 591 ;
592 [label="gini = 0.28\nsamples = 6\nvalue = [0, 0, 0, 10, 2]", fillcolor="#6361ea"] ;
591 -> 592 ;
593 [label="gini = 0.0\nsamples = 5\nvalue = [0, 0, 0, 7, 0]", fillcolor="#3c39e5"] ;
591 -> 593 ;
594 [label="X[26] <= 14386.5\ngini = 0.59\nsamples = 32\nvalue = [3, 5, 29, 4, 7]", fillcolor="#95f1e0"] ;
564 -> 594 ;
595 [label="X[23] <= 0.5\ngini = 0.47\nsamples = 28\nvalue = [0, 3, 29, 4, 5]", fillcolor="#7beed8"] ;
594 -> 595 ;
596 [label="X[0] <= 5.5\ngini = 0.42\nsamples = 27\nvalue = [0, 1, 29, 4, 5]", fillcolor="#73edd6"] ;
595 -> 596 ;
597 [label="X[26] <= 13893.5\ngini = 0.34\nsamples = 24\nvalue = [0, 1, 28, 1, 5]", fillcolor="#67ebd3"] ;
596 -> 597 ;
598 [label="gini = 0.0\nsamples = 11\nvalue = [0, 0, 16, 0, 0]", fillcolor="#39e5c5"] ;
597 -> 598 ;
599 [label="gini = 0.53\nsamples = 13\nvalue = [0, 1, 12, 1, 5]", fillcolor="#9cf2e2"] ;
597 -> 599 ;
600 [label="X[2] <= 91.5\ngini = 0.38\nsamples = 3\nvalue = [0, 0, 1, 3, 0]", fillcolor="#7d7bee"] ;
596 -> 600 ;
601 [label="gini = 0.0\nsamples = 1\nvalue = [0, 0, 0, 2, 0]", fillcolor="#3c39e5"] ;
600 -> 601 ;
602 [label="gini = 0.5\nsamples = 2\nvalue = [0, 0, 1, 1, 0]", fillcolor="#ffffff"] ;
600 -> 602 ;
603 [label="gini = 0.0\nsamples = 1\nvalue = [0, 2, 0, 0, 0]", fillcolor="#7be539"] ;
595 -> 603 ;
604 [label="X[2] <= 94.0\ngini = 0.65\nsamples = 4\nvalue = [3, 2, 0, 0, 2]", fillcolor="#fae6d7"] ;
594 -> 604 ;
605 [label="gini = 0.0\nsamples = 1\nvalue = [3, 0, 0, 0, 0]", fillcolor="#e58139"] ;
604 -> 605 ;
606 [label="X[26] <= 14403.0\ngini = 0.5\nsamples = 3\nvalue = [0, 2, 0, 0, 2]", fillcolor="#ffffff"] ;
604 -> 606 ;
607 [label="gini = 0.0\nsamples = 2\nvalue = [0, 0, 0, 0, 2]", fillcolor="#e539c0"] ;
606 -> 607 ;
608 [label="gini = 0.0\nsamples = 1\nvalue = [0, 2, 0, 0, 0]", fillcolor="#7be539"] ;
606 -> 608 ;
609 [label="X[26] <= 12076.0\ngini = 0.56\nsamples = 298\nvalue = [6, 18, 242, 170, 12]", fillcolor="#ccf8f0"] ;
505 -> 609 ;
610 [label="X[1] <= 97500000.0\ngini = 0.55\nsamples = 254\nvalue = [6, 17, 225, 131, 9]", fillcolor="#b7f5ea"] ;
609 -> 610 ;
611 [label="X[2] <= 129.5\ngini = 0.53\nsamples = 240\nvalue = [6, 15, 221, 116, 9]", fillcolor="#acf4e7"] ;
610 -> 611 ;
612 [label="X[26] <= 10940.0\ngini = 0.55\nsamples = 195\nvalue = [5, 8, 164, 109, 9]", fillcolor="#c4f7ee"] ;
611 -> 612 ;
613 [label="X[22] <= 0.5\ngini = 0.56\nsamples = 181\nvalue = [5, 8, 143, 109, 8]", fillcolor="#d6faf3"] ;
612 -> 613 ;
614 [label="X[11] <= 0.5\ngini = 0.57\nsamples = 170\nvalue = [5, 7, 131, 109, 8]", fillcolor="#e2fbf7"] ;
613 -> 614 ;
615 [label="gini = 0.56\nsamples = 145\nvalue = [4, 6, 118, 84, 6]", fillcolor="#cdf8f0"] ;
614 -> 615 ;
616 [label="gini = 0.55\nsamples = 25\nvalue = [1, 1, 13, 25, 2]", fillcolor="#aeadf4"] ;
614 -> 616 ;
617 [label="X[26] <= 904.5\ngini = 0.14\nsamples = 11\nvalue = [0, 1, 12, 0, 0]", fillcolor="#49e7ca"] ;
613 -> 617 ;
618 [label="gini = 0.0\nsamples = 1\nvalue = [0, 1, 0, 0, 0]", fillcolor="#7be539"] ;
617 -> 618 ;
619 [label="gini = 0.0\nsamples = 10\nvalue = [0, 0, 12, 0, 0]", fillcolor="#39e5c5"] ;
617 -> 619 ;
620 [label="X[26] <= 11542.5\ngini = 0.09\nsamples = 14\nvalue = [0, 0, 21, 0, 1]", fillcolor="#42e6c8"] ;
612 -> 620 ;
621 [label="gini = 0.0\nsamples = 10\nvalue = [0, 0, 17, 0, 0]", fillcolor="#39e5c5"] ;
620 -> 621 ;
622 [label="X[0] <= 2.5\ngini = 0.32\nsamples = 4\nvalue = [0, 0, 4, 0, 1]", fillcolor="#6aecd4"] ;
620 -> 622 ;
623 [label="gini = 0.5\nsamples = 2\nvalue = [0, 0, 1, 0, 1]", fillcolor="#ffffff"] ;
622 -> 623 ;
624 [label="gini = 0.0\nsamples = 2\nvalue = [0, 0, 3, 0, 0]", fillcolor="#39e5c5"] ;
622 -> 624 ;
625 [label="X[11] <= 0.5\ngini = 0.35\nsamples = 45\nvalue = [1, 7, 57, 7, 0]", fillcolor="#67ebd2"] ;
611 -> 625 ;
626 [label="X[22] <= 0.5\ngini = 0.31\nsamples = 41\nvalue = [1, 7, 56, 4, 0]", fillcolor="#60ead0"] ;
625 -> 626 ;
627 [label="X[1] <= 16500000.0\ngini = 0.23\nsamples = 37\nvalue = [1, 5, 54, 2, 0]", fillcolor="#55e9cd"] ;
626 -> 627 ;
628 [label="gini = 0.49\nsamples = 4\nvalue = [0, 3, 4, 0, 0]", fillcolor="#cef8f0"] ;
627 -> 628 ;
629 [label="gini = 0.17\nsamples = 33\nvalue = [1, 2, 50, 2, 0]", fillcolor="#4ce7ca"] ;
627 -> 629 ;
630 [label="X[0] <= 2.5\ngini = 0.67\nsamples = 4\nvalue = [0, 2, 2, 2, 0]", fillcolor="#ffffff"] ;
626 -> 630 ;
631 [label="gini = 0.0\nsamples = 1\nvalue = [0, 2, 0, 0, 0]", fillcolor="#7be539"] ;
630 -> 631 ;
632 [label="gini = 0.5\nsamples = 3\nvalue = [0, 0, 2, 2, 0]", fillcolor="#ffffff"] ;
630 -> 632 ;
633 [label="X[0] <= 2.5\ngini = 0.38\nsamples = 4\nvalue = [0, 0, 1, 3, 0]", fillcolor="#7d7bee"] ;
625 -> 633 ;
634 [label="gini = 0.0\nsamples = 3\nvalue = [0, 0, 0, 3, 0]", fillcolor="#3c39e5"] ;
633 -> 634 ;
635 [label="gini = 0.0\nsamples = 1\nvalue = [0, 0, 1, 0, 0]", fillcolor="#39e5c5"] ;
633 -> 635 ;
636 [label="X[26] <= 7862.0\ngini = 0.44\nsamples = 14\nvalue = [0, 2, 4, 15, 0]", fillcolor="#817fee"] ;
610 -> 636 ;
637 [label="X[0] <= 0.5\ngini = 0.23\nsamples = 9\nvalue = [0, 2, 0, 13, 0]", fillcolor="#5a57e9"] ;
636 -> 637 ;
638 [label="X[16] <= 0.5\ngini = 0.44\nsamples = 2\nvalue = [0, 2, 0, 1, 0]", fillcolor="#bdf29c"] ;
637 -> 638 ;
639 [label="gini = 0.0\nsamples = 1\nvalue = [0, 0, 0, 1, 0]", fillcolor="#3c39e5"] ;
638 -> 639 ;
640 [label="gini = 0.0\nsamples = 1\nvalue = [0, 2, 0, 0, 0]", fillcolor="#7be539"] ;
638 -> 640 ;
641 [label="gini = 0.0\nsamples = 7\nvalue = [0, 0, 0, 12, 0]", fillcolor="#3c39e5"] ;
637 -> 641 ;
642 [label="X[4] <= 0.5\ngini = 0.44\nsamples = 5\nvalue = [0, 0, 4, 2, 0]", fillcolor="#9cf2e2"] ;
636 -> 642 ;
643 [label="X[6] <= 0.5\ngini = 0.32\nsamples = 4\nvalue = [0, 0, 4, 1, 0]", fillcolor="#6aecd4"] ;
642 -> 643 ;
644 [label="gini = 0.0\nsamples = 3\nvalue = [0, 0, 4, 0, 0]", fillcolor="#39e5c5"] ;
643 -> 644 ;
645 [label="gini = 0.0\nsamples = 1\nvalue = [0, 0, 0, 1, 0]", fillcolor="#3c39e5"] ;
643 -> 645 ;
646 [label="gini = 0.0\nsamples = 1\nvalue = [0, 0, 0, 1, 0]", fillcolor="#3c39e5"] ;
642 -> 646 ;
647 [label="X[26] <= 14304.5\ngini = 0.49\nsamples = 44\nvalue = [0, 1, 17, 39, 3]", fillcolor="#9b9af2"] ;
609 -> 647 ;
648 [label="X[17] <= 0.5\ngini = 0.38\nsamples = 35\nvalue = [0, 1, 7, 37, 3]", fillcolor="#706eec"] ;
647 -> 648 ;
649 [label="X[11] <= 0.5\ngini = 0.26\nsamples = 29\nvalue = [0, 0, 5, 35, 1]", fillcolor="#5d5ae9"] ;
648 -> 649 ;
650 [label="X[1] <= 23500000.0\ngini = 0.42\nsamples = 17\nvalue = [0, 0, 5, 16, 1]", fillcolor="#817fee"] ;
649 -> 650 ;
651 [label="X[0] <= 1.0\ngini = 0.49\nsamples = 5\nvalue = [0, 0, 4, 3, 0]", fillcolor="#cef8f0"] ;
650 -> 651 ;
652 [label="gini = 0.0\nsamples = 1\nvalue = [0, 0, 0, 1, 0]", fillcolor="#3c39e5"] ;
651 -> 652 ;
653 [label="gini = 0.44\nsamples = 4\nvalue = [0, 0, 4, 2, 0]", fillcolor="#9cf2e2"] ;
651 -> 653 ;
654 [label="X[26] <= 13486.0\ngini = 0.24\nsamples = 12\nvalue = [0, 0, 1, 13, 1]", fillcolor="#5855e9"] ;
650 -> 654 ;
655 [label="gini = 0.5\nsamples = 5\nvalue = [0, 0, 1, 4, 1]", fillcolor="#8a88ef"] ;
654 -> 655 ;
656 [label="gini = 0.0\nsamples = 7\nvalue = [0, 0, 0, 9, 0]", fillcolor="#3c39e5"] ;
654 -> 656 ;
657 [label="gini = 0.0\nsamples = 12\nvalue = [0, 0, 0, 19, 0]", fillcolor="#3c39e5"] ;
649 -> 657 ;
658 [label="X[26] <= 12782.5\ngini = 0.73\nsamples = 6\nvalue = [0, 1, 2, 2, 2]", fillcolor="#ffffff"] ;
648 -> 658 ;
659 [label="X[0] <= 4.0\ngini = 0.44\nsamples = 2\nvalue = [0, 0, 0, 1, 2]", fillcolor="#f29ce0"] ;
658 -> 659 ;
660 [label="gini = 0.0\nsamples = 1\nvalue = [0, 0, 0, 1, 0]", fillcolor="#3c39e5"] ;
659 -> 660 ;
661 [label="gini = 0.0\nsamples = 1\nvalue = [0, 0, 0, 0, 2]", fillcolor="#e539c0"] ;
659 -> 661 ;
662 [label="X[0] <= 5.0\ngini = 0.62\nsamples = 4\nvalue = [0, 1, 2, 1, 0]", fillcolor="#bdf6ec"] ;
658 -> 662 ;
663 [label="X[0] <= 1.0\ngini = 0.44\nsamples = 3\nvalue = [0, 1, 2, 0, 0]", fillcolor="#9cf2e2"] ;
662 -> 663 ;
664 [label="gini = 0.0\nsamples = 1\nvalue = [0, 0, 1, 0, 0]", fillcolor="#39e5c5"] ;
663 -> 664 ;
665 [label="gini = 0.5\nsamples = 2\nvalue = [0, 1, 1, 0, 0]", fillcolor="#ffffff"] ;
663 -> 665 ;
666 [label="gini = 0.0\nsamples = 1\nvalue = [0, 0, 0, 1, 0]", fillcolor="#3c39e5"] ;
662 -> 666 ;
667 [label="X[0] <= 5.5\ngini = 0.28\nsamples = 9\nvalue = [0, 0, 10, 2, 0]", fillcolor="#61ead1"] ;
647 -> 667 ;
668 [label="X[26] <= 14376.5\ngini = 0.17\nsamples = 8\nvalue = [0, 0, 10, 1, 0]", fillcolor="#4de8cb"] ;
667 -> 668 ;
669 [label="gini = 0.0\nsamples = 6\nvalue = [0, 0, 9, 0, 0]", fillcolor="#39e5c5"] ;
668 -> 669 ;
670 [label="X[0] <= 2.5\ngini = 0.5\nsamples = 2\nvalue = [0, 0, 1, 1, 0]", fillcolor="#ffffff"] ;
668 -> 670 ;
671 [label="gini = 0.0\nsamples = 1\nvalue = [0, 0, 1, 0, 0]", fillcolor="#39e5c5"] ;
670 -> 671 ;
672 [label="gini = 0.0\nsamples = 1\nvalue = [0, 0, 0, 1, 0]", fillcolor="#3c39e5"] ;
670 -> 672 ;
673 [label="gini = 0.0\nsamples = 1\nvalue = [0, 0, 0, 1, 0]", fillcolor="#3c39e5"] ;
667 -> 673 ;
674 [label="X[6] <= 0.5\ngini = 0.63\nsamples = 18074\nvalue = [901, 3841, 14784, 8384, 730]", fillcolor="#c0f7ed"] ;
0 -> 674 [labeldistance=2.5, labelangle=-45, headlabel="False"] ;
675 [label="X[0] <= 7.5\ngini = 0.62\nsamples = 16186\nvalue = [677, 2893, 13276, 8090, 703]", fillcolor="#c4f7ee"] ;
674 -> 675 ;
676 [label="X[3] <= 0.5\ngini = 0.6\nsamples = 14801\nvalue = [610, 2749, 12649, 7074, 377]", fillcolor="#bcf6eb"] ;
675 -> 676 ;
677 [label="X[12] <= 0.5\ngini = 0.6\nsamples = 13348\nvalue = [577, 2659, 11712, 5922, 299]", fillcolor="#b4f5e9"] ;
676 -> 677 ;
678 [label="X[5] <= 0.5\ngini = 0.62\nsamples = 6422\nvalue = [382, 1759, 5462, 2311, 189]", fillcolor="#aff4e8"] ;
677 -> 678 ;
679 [label="X[2] <= 49.5\ngini = 0.63\nsamples = 4953\nvalue = [290, 1261, 4151, 1896, 170]", fillcolor="#b3f5e9"] ;
678 -> 679 ;
680 [label="X[26] <= 11866.5\ngini = 0.69\nsamples = 409\nvalue = [43, 118, 275, 180, 19]", fillcolor="#d6faf3"] ;
679 -> 680 ;
681 [label="X[20] <= 0.5\ngini = 0.71\nsamples = 344\nvalue = [40, 100, 211, 161, 17]", fillcolor="#e4fbf7"] ;
680 -> 681 ;
682 [label="X[10] <= 0.5\ngini = 0.72\nsamples = 307\nvalue = [40, 96, 174, 147, 17]", fillcolor="#effdfa"] ;
681 -> 682 ;
683 [label="gini = 0.73\nsamples = 286\nvalue = [40, 90, 153, 142, 17]", fillcolor="#f8fefd"] ;
682 -> 683 ;
684 [label="gini = 0.51\nsamples = 21\nvalue = [0, 6, 21, 5, 0]", fillcolor="#8df0de"] ;
682 -> 684 ;
685 [label="X[26] <= 10996.0\ngini = 0.48\nsamples = 37\nvalue = [0, 4, 37, 14, 0]", fillcolor="#90f0de"] ;
681 -> 685 ;
686 [label="gini = 0.43\nsamples = 35\nvalue = [0, 4, 37, 10, 0]", fillcolor="#7deed9"] ;
685 -> 686 ;
687 [label="gini = 0.0\nsamples = 2\nvalue = [0, 0, 0, 4, 0]", fillcolor="#3c39e5"] ;
685 -> 687 ;
688 [label="X[26] <= 14257.5\ngini = 0.57\nsamples = 65\nvalue = [3, 18, 64, 19, 2]", fillcolor="#99f2e1"] ;
680 -> 688 ;
689 [label="X[21] <= 0.5\ngini = 0.53\nsamples = 59\nvalue = [3, 15, 63, 14, 2]", fillcolor="#8bf0dd"] ;
688 -> 689 ;
690 [label="gini = 0.5\nsamples = 56\nvalue = [3, 15, 61, 9, 2]", fillcolor="#86efdb"] ;
689 -> 690 ;
691 [label="gini = 0.41\nsamples = 3\nvalue = [0, 0, 2, 5, 0]", fillcolor="#8a88ef"] ;
689 -> 691 ;
692 [label="X[26] <= 14281.0\ngini = 0.57\nsamples = 6\nvalue = [0, 3, 1, 5, 0]", fillcolor="#bebdf6"] ;
688 -> 692 ;
693 [label="gini = 0.0\nsamples = 1\nvalue = [0, 2, 0, 0, 0]", fillcolor="#7be539"] ;
692 -> 693 ;
694 [label="gini = 0.45\nsamples = 5\nvalue = [0, 1, 1, 5, 0]", fillcolor="#7d7bee"] ;
692 -> 694 ;
695 [label="X[14] <= 0.5\ngini = 0.62\nsamples = 4544\nvalue = [247, 1143, 3876, 1716, 151]", fillcolor="#b0f5e8"] ;
679 -> 695 ;
696 [label="X[17] <= 0.5\ngini = 0.64\nsamples = 2132\nvalue = [146, 531, 1702, 851, 95]", fillcolor="#bbf6eb"] ;
695 -> 696 ;
697 [label="X[22] <= 0.5\ngini = 0.65\nsamples = 1984\nvalue = [144, 510, 1548, 792, 91]", fillcolor="#bef6ec"] ;
696 -> 697 ;
698 [label="gini = 0.65\nsamples = 1765\nvalue = [127, 434, 1367, 736, 91]", fillcolor="#c1f7ed"] ;
697 -> 698 ;
699 [label="gini = 0.61\nsamples = 219\nvalue = [17, 76, 181, 56, 0]", fillcolor="#adf4e7"] ;
697 -> 699 ;
700 [label="X[26] <= 12547.5\ngini = 0.52\nsamples = 148\nvalue = [2, 21, 154, 59, 4]", fillcolor="#97f1e1"] ;
696 -> 700 ;
701 [label="gini = 0.49\nsamples = 136\nvalue = [2, 19, 147, 48, 3]", fillcolor="#8cf0dd"] ;
700 -> 701 ;
702 [label="gini = 0.6\nsamples = 12\nvalue = [0, 2, 7, 11, 1]", fillcolor="#c7c6f8"] ;
700 -> 702 ;
703 [label="X[23] <= 0.5\ngini = 0.6\nsamples = 2412\nvalue = [101, 612, 2174, 865, 56]", fillcolor="#a7f3e5"] ;
695 -> 703 ;
704 [label="X[7] <= 0.5\ngini = 0.61\nsamples = 2156\nvalue = [93, 558, 1904, 797, 56]", fillcolor="#abf4e6"] ;
703 -> 704 ;
705 [label="gini = 0.6\nsamples = 2145\nvalue = [92, 555, 1900, 789, 51]", fillcolor="#aaf4e6"] ;
704 -> 705 ;
706 [label="gini = 0.74\nsamples = 11\nvalue = [1, 3, 4, 8, 5]", fillcolor="#dadafa"] ;
704 -> 706 ;
707 [label="X[1] <= 235000000.0\ngini = 0.5\nsamples = 256\nvalue = [8, 54, 270, 68, 0]", fillcolor="#87efdc"] ;
703 -> 707 ;
708 [label="gini = 0.49\nsamples = 254\nvalue = [8, 49, 270, 68, 0]", fillcolor="#85efdb"] ;
707 -> 708 ;
709 [label="gini = 0.0\nsamples = 2\nvalue = [0, 5, 0, 0, 0]", fillcolor="#7be539"] ;
707 -> 709 ;
710 [label="X[11] <= 0.5\ngini = 0.61\nsamples = 1469\nvalue = [92, 498, 1311, 415, 19]", fillcolor="#a7f3e5"] ;
678 -> 710 ;
711 [label="X[16] <= 0.5\ngini = 0.6\nsamples = 1452\nvalue = [92, 497, 1300, 395, 19]", fillcolor="#a7f3e5"] ;
710 -> 711 ;
712 [label="X[1] <= 870000.0\ngini = 0.61\nsamples = 1168\nvalue = [85, 439, 1009, 300, 7]", fillcolor="#aef4e7"] ;
711 -> 712 ;
713 [label="X[26] <= 11485.0\ngini = 0.63\nsamples = 955\nvalue = [77, 369, 780, 263, 7]", fillcolor="#b7f6ea"] ;
712 -> 713 ;
714 [label="gini = 0.63\nsamples = 794\nvalue = [58, 344, 634, 203, 5]", fillcolor="#bff7ec"] ;
713 -> 714 ;
715 [label="gini = 0.59\nsamples = 161\nvalue = [19, 25, 146, 60, 2]", fillcolor="#a6f3e5"] ;
713 -> 715 ;
716 [label="X[1] <= 6175000.0\ngini = 0.5\nsamples = 213\nvalue = [8, 70, 229, 37, 0]", fillcolor="#8cf0dd"] ;
712 -> 716 ;
717 [label="gini = 0.31\nsamples = 76\nvalue = [4, 9, 101, 9, 0]", fillcolor="#5fead0"] ;
716 -> 717 ;
718 [label="gini = 0.57\nsamples = 137\nvalue = [4, 61, 128, 28, 0]", fillcolor="#acf4e7"] ;
716 -> 718 ;
719 [label="X[26] <= 14439.5\ngini = 0.55\nsamples = 284\nvalue = [7, 58, 291, 95, 12]", fillcolor="#96f1e0"] ;
711 -> 719 ;
720 [label="X[2] <= 54.0\ngini = 0.54\nsamples = 283\nvalue = [7, 58, 291, 89, 12]", fillcolor="#92f1df"] ;
719 -> 720 ;
721 [label="gini = 0.67\nsamples = 24\nvalue = [0, 12, 11, 11, 0]", fillcolor="#f9fef6"] ;
720 -> 721 ;
722 [label="gini = 0.51\nsamples = 259\nvalue = [7, 46, 280, 78, 12]", fillcolor="#8bf0dd"] ;
720 -> 722 ;
723 [label="gini = 0.0\nsamples = 1\nvalue = [0, 0, 0, 6, 0]", fillcolor="#3c39e5"] ;
719 -> 723 ;
724 [label="X[26] <= 2571.5\ngini = 0.49\nsamples = 17\nvalue = [0, 1, 11, 20, 0]", fillcolor="#abaaf4"] ;
710 -> 724 ;
725 [label="X[2] <= 83.0\ngini = 0.24\nsamples = 6\nvalue = [0, 1, 1, 13, 0]", fillcolor="#5855e9"] ;
724 -> 725 ;
726 [label="X[24] <= 0.5\ngini = 0.5\nsamples = 2\nvalue = [0, 1, 1, 0, 0]", fillcolor="#ffffff"] ;
725 -> 726 ;
727 [label="gini = 0.0\nsamples = 1\nvalue = [0, 0, 1, 0, 0]", fillcolor="#39e5c5"] ;
726 -> 727 ;
728 [label="gini = 0.0\nsamples = 1\nvalue = [0, 1, 0, 0, 0]", fillcolor="#7be539"] ;
726 -> 728 ;
729 [label="gini = 0.0\nsamples = 4\nvalue = [0, 0, 0, 13, 0]", fillcolor="#3c39e5"] ;
725 -> 729 ;
730 [label="X[26] <= 8684.0\ngini = 0.48\nsamples = 11\nvalue = [0, 0, 10, 7, 0]", fillcolor="#c4f7ee"] ;
724 -> 730 ;
731 [label="X[8] <= 0.5\ngini = 0.32\nsamples = 8\nvalue = [0, 0, 8, 2, 0]", fillcolor="#6aecd4"] ;
730 -> 731 ;
732 [label="gini = 0.2\nsamples = 7\nvalue = [0, 0, 8, 1, 0]", fillcolor="#52e8cc"] ;
731 -> 732 ;
733 [label="gini = 0.0\nsamples = 1\nvalue = [0, 0, 0, 1, 0]", fillcolor="#3c39e5"] ;
731 -> 733 ;
734 [label="X[26] <= 11743.5\ngini = 0.41\nsamples = 3\nvalue = [0, 0, 2, 5, 0]", fillcolor="#8a88ef"] ;
730 -> 734 ;
735 [label="gini = 0.0\nsamples = 2\nvalue = [0, 0, 0, 5, 0]", fillcolor="#3c39e5"] ;
734 -> 735 ;
736 [label="gini = 0.0\nsamples = 1\nvalue = [0, 0, 2, 0, 0]", fillcolor="#39e5c5"] ;
734 -> 736 ;
737 [label="X[5] <= 0.5\ngini = 0.57\nsamples = 6926\nvalue = [195, 900, 6250, 3611, 110]", fillcolor="#b9f6ea"] ;
677 -> 737 ;
738 [label="X[10] <= 0.5\ngini = 0.57\nsamples = 6127\nvalue = [160, 736, 5493, 3331, 103]", fillcolor="#bdf6ec"] ;
737 -> 738 ;
739 [label="X[11] <= 0.5\ngini = 0.57\nsamples = 5331\nvalue = [132, 604, 4719, 2989, 89]", fillcolor="#c1f7ed"] ;
738 -> 739 ;
740 [label="X[26] <= 14202.0\ngini = 0.56\nsamples = 5033\nvalue = [124, 579, 4484, 2768, 84]", fillcolor="#bff7ec"] ;
739 -> 740 ;
741 [label="X[4] <= 0.5\ngini = 0.57\nsamples = 4974\nvalue = [124, 574, 4418, 2756, 81]", fillcolor="#c0f7ec"] ;
740 -> 741 ;
742 [label="gini = 0.57\nsamples = 4709\nvalue = [118, 534, 4147, 2649, 78]", fillcolor="#c2f7ed"] ;
741 -> 742 ;
743 [label="gini = 0.53\nsamples = 265\nvalue = [6, 40, 271, 107, 3]", fillcolor="#9af2e1"] ;
741 -> 743 ;
744 [label="X[13] <= 0.5\ngini = 0.39\nsamples = 59\nvalue = [0, 5, 66, 12, 3]", fillcolor="#6fecd5"] ;
740 -> 744 ;
745 [label="gini = 0.35\nsamples = 56\nvalue = [0, 3, 66, 11, 3]", fillcolor="#68ebd3"] ;
744 -> 745 ;
746 [label="gini = 0.44\nsamples = 3\nvalue = [0, 2, 0, 1, 0]", fillcolor="#bdf29c"] ;
744 -> 746 ;
747 [label="X[26] <= 1865.0\ngini = 0.57\nsamples = 298\nvalue = [8, 25, 235, 221, 5]", fillcolor="#f5fefc"] ;
739 -> 747 ;
748 [label="X[8] <= 0.5\ngini = 0.48\nsamples = 74\nvalue = [0, 9, 82, 32, 0]", fillcolor="#92f1df"] ;
747 -> 748 ;
749 [label="gini = 0.5\nsamples = 60\nvalue = [0, 5, 61, 32, 0]", fillcolor="#a8f4e6"] ;
748 -> 749 ;
750 [label="gini = 0.27\nsamples = 14\nvalue = [0, 4, 21, 0, 0]", fillcolor="#5fead0"] ;
748 -> 750 ;
751 [label="X[22] <= 0.5\ngini = 0.57\nsamples = 224\nvalue = [8, 16, 153, 189, 5]", fillcolor="#dfdefb"] ;
747 -> 751 ;
752 [label="gini = 0.56\nsamples = 223\nvalue = [8, 12, 153, 189, 5]", fillcolor="#dedefb"] ;
751 -> 752 ;
753 [label="gini = 0.0\nsamples = 1\nvalue = [0, 4, 0, 0, 0]", fillcolor="#7be539"] ;
751 -> 753 ;
754 [label="X[2] <= 8.0\ngini = 0.56\nsamples = 796\nvalue = [28, 132, 774, 342, 14]", fillcolor="#a5f3e5"] ;
738 -> 754 ;
755 [label="X[16] <= 0.5\ngini = 0.7\nsamples = 35\nvalue = [0, 20, 22, 17, 4]", fillcolor="#f6fefc"] ;
754 -> 755 ;
756 [label="X[8] <= 0.5\ngini = 0.69\nsamples = 24\nvalue = [0, 18, 11, 17, 3]", fillcolor="#fbfef9"] ;
755 -> 756 ;
757 [label="gini = 0.67\nsamples = 21\nvalue = [0, 16, 6, 17, 3]", fillcolor="#f8f7fe"] ;
756 -> 757 ;
758 [label="gini = 0.41\nsamples = 3\nvalue = [0, 2, 5, 0, 0]", fillcolor="#88efdc"] ;
756 -> 758 ;
759 [label="X[18] <= 0.5\ngini = 0.36\nsamples = 11\nvalue = [0, 2, 11, 0, 1]", fillcolor="#6becd4"] ;
755 -> 759 ;
760 [label="gini = 0.0\nsamples = 8\nvalue = [0, 0, 10, 0, 0]", fillcolor="#39e5c5"] ;
759 -> 760 ;
761 [label="gini = 0.62\nsamples = 3\nvalue = [0, 2, 1, 0, 1]", fillcolor="#d3f6bd"] ;
759 -> 761 ;
762 [label="X[2] <= 119.5\ngini = 0.55\nsamples = 761\nvalue = [28, 112, 752, 325, 10]", fillcolor="#a1f3e4"] ;
754 -> 762 ;
763 [label="X[2] <= 114.5\ngini = 0.53\nsamples = 647\nvalue = [24, 97, 652, 252, 9]", fillcolor="#9af2e1"] ;
762 -> 763 ;
764 [label="gini = 0.53\nsamples = 616\nvalue = [22, 80, 621, 246, 9]", fillcolor="#9af2e1"] ;
763 -> 764 ;
765 [label="gini = 0.59\nsamples = 31\nvalue = [2, 17, 31, 6, 0]", fillcolor="#b8f6ea"] ;
763 -> 765 ;
766 [label="X[2] <= 157.0\ngini = 0.58\nsamples = 114\nvalue = [4, 15, 100, 73, 1]", fillcolor="#d2f9f2"] ;
762 -> 766 ;
767 [label="gini = 0.59\nsamples = 97\nvalue = [4, 14, 77, 72, 0]", fillcolor="#f5fefc"] ;
766 -> 767 ;
768 [label="gini = 0.21\nsamples = 17\nvalue = [0, 1, 23, 1, 1]", fillcolor="#51e8cc"] ;
766 -> 768 ;
769 [label="X[11] <= 0.5\ngini = 0.56\nsamples = 799\nvalue = [35, 164, 757, 280, 7]", fillcolor="#9df2e2"] ;
737 -> 769 ;
770 [label="X[2] <= 138.5\ngini = 0.56\nsamples = 734\nvalue = [34, 163, 696, 229, 7]", fillcolor="#98f2e1"] ;
769 -> 770 ;
771 [label="X[26] <= 11214.5\ngini = 0.54\nsamples = 687\nvalue = [30, 146, 666, 204, 7]", fillcolor="#93f1df"] ;
770 -> 771 ;
772 [label="X[26] <= 10957.5\ngini = 0.57\nsamples = 576\nvalue = [27, 131, 530, 183, 6]", fillcolor="#9cf2e2"] ;
771 -> 772 ;
773 [label="gini = 0.56\nsamples = 570\nvalue = [23, 124, 529, 183, 6]", fillcolor="#9bf2e2"] ;
772 -> 773 ;
774 [label="gini = 0.54\nsamples = 6\nvalue = [4, 7, 1, 0, 0]", fillcolor="#cef5b5"] ;
772 -> 774 ;
775 [label="X[26] <= 14416.5\ngini = 0.38\nsamples = 111\nvalue = [3, 15, 136, 21, 1]", fillcolor="#6cecd4"] ;
771 -> 775 ;
776 [label="gini = 0.37\nsamples = 110\nvalue = [3, 13, 136, 21, 1]", fillcolor="#6aebd3"] ;
775 -> 776 ;
777 [label="gini = 0.0\nsamples = 1\nvalue = [0, 2, 0, 0, 0]", fillcolor="#7be539"] ;
775 -> 777 ;
778 [label="X[26] <= 13486.0\ngini = 0.68\nsamples = 47\nvalue = [4, 17, 30, 25, 0]", fillcolor="#ecfcf9"] ;
770 -> 778 ;
779 [label="X[2] <= 144.0\ngini = 0.68\nsamples = 42\nvalue = [4, 17, 29, 16, 0]", fillcolor="#cff9f1"] ;
778 -> 779 ;
780 [label="gini = 0.58\nsamples = 8\nvalue = [4, 1, 1, 8, 0]", fillcolor="#b1b0f5"] ;
779 -> 780 ;
781 [label="gini = 0.59\nsamples = 34\nvalue = [0, 16, 28, 8, 0]", fillcolor="#bdf6ec"] ;
779 -> 781 ;
782 [label="X[16] <= 0.5\ngini = 0.18\nsamples = 5\nvalue = [0, 0, 1, 9, 0]", fillcolor="#524fe8"] ;
778 -> 782 ;
783 [label="gini = 0.44\nsamples = 2\nvalue = [0, 0, 1, 2, 0]", fillcolor="#9e9cf2"] ;
782 -> 783 ;
784 [label="gini = 0.0\nsamples = 3\nvalue = [0, 0, 0, 7, 0]", fillcolor="#3c39e5"] ;
782 -> 784 ;
785 [label="X[26] <= 13612.5\ngini = 0.51\nsamples = 65\nvalue = [1, 1, 61, 51, 0]", fillcolor="#e0fbf6"] ;
769 -> 785 ;
786 [label="X[24] <= 0.5\ngini = 0.52\nsamples = 62\nvalue = [1, 1, 52, 51, 0]", fillcolor="#fbfffe"] ;
785 -> 786 ;
787 [label="X[2] <= 3.0\ngini = 0.52\nsamples = 54\nvalue = [1, 1, 39, 49, 0]", fillcolor="#d9d8fa"] ;
786 -> 787 ;
788 [label="gini = 0.0\nsamples = 2\nvalue = [0, 0, 6, 0, 0]", fillcolor="#39e5c5"] ;
787 -> 788 ;
789 [label="gini = 0.51\nsamples = 52\nvalue = [1, 1, 33, 49, 0]", fillcolor="#c2c1f7"] ;
787 -> 789 ;
790 [label="X[7] <= 0.5\ngini = 0.23\nsamples = 8\nvalue = [0, 0, 13, 2, 0]", fillcolor="#57e9ce"] ;
786 -> 790 ;
791 [label="gini = 0.0\nsamples = 7\nvalue = [0, 0, 13, 0, 0]", fillcolor="#39e5c5"] ;
790 -> 791 ;
792 [label="gini = 0.0\nsamples = 1\nvalue = [0, 0, 0, 2, 0]", fillcolor="#3c39e5"] ;
790 -> 792 ;
793 [label="gini = 0.0\nsamples = 3\nvalue = [0, 0, 9, 0, 0]", fillcolor="#39e5c5"] ;
785 -> 793 ;
794 [label="X[2] <= 82.5\ngini = 0.58\nsamples = 1453\nvalue = [33, 90, 937, 1152, 78]", fillcolor="#e0e0fb"] ;
676 -> 794 ;
795 [label="X[26] <= 347.5\ngini = 0.64\nsamples = 322\nvalue = [13, 39, 224, 217, 31]", fillcolor="#fafefe"] ;
794 -> 795 ;
796 [label="X[12] <= 0.5\ngini = 0.58\nsamples = 69\nvalue = [0, 10, 66, 31, 7]", fillcolor="#acf4e7"] ;
795 -> 796 ;
797 [label="X[2] <= 0.5\ngini = 0.56\nsamples = 67\nvalue = [0, 8, 66, 30, 7]", fillcolor="#a7f3e5"] ;
796 -> 797 ;
798 [label="X[14] <= 0.5\ngini = 0.36\nsamples = 12\nvalue = [0, 3, 14, 1, 0]", fillcolor="#6eecd4"] ;
797 -> 798 ;
799 [label="X[21] <= 0.5\ngini = 0.38\nsamples = 11\nvalue = [0, 3, 13, 1, 0]", fillcolor="#72ecd6"] ;
798 -> 799 ;
800 [label="gini = 0.4\nsamples = 10\nvalue = [0, 3, 12, 1, 0]", fillcolor="#76edd7"] ;
799 -> 800 ;
801 [label="gini = 0.0\nsamples = 1\nvalue = [0, 0, 1, 0, 0]", fillcolor="#39e5c5"] ;
799 -> 801 ;
802 [label="gini = 0.0\nsamples = 1\nvalue = [0, 0, 1, 0, 0]", fillcolor="#39e5c5"] ;
798 -> 802 ;
803 [label="X[2] <= 74.5\ngini = 0.58\nsamples = 55\nvalue = [0, 5, 52, 29, 7]", fillcolor="#b8f6ea"] ;
797 -> 803 ;
804 [label="X[2] <= 71.5\ngini = 0.58\nsamples = 36\nvalue = [0, 3, 30, 24, 3]", fillcolor="#defbf5"] ;
803 -> 804 ;
805 [label="gini = 0.54\nsamples = 30\nvalue = [0, 2, 30, 15, 3]", fillcolor="#aaf4e6"] ;
804 -> 805 ;
806 [label="gini = 0.18\nsamples = 6\nvalue = [0, 1, 0, 9, 0]", fillcolor="#524fe8"] ;
804 -> 806 ;
807 [label="X[1] <= 137500.0\ngini = 0.51\nsamples = 19\nvalue = [0, 2, 22, 5, 4]", fillcolor="#87efdc"] ;
803 -> 807 ;
808 [label="gini = 0.48\nsamples = 16\nvalue = [0, 2, 21, 3, 4]", fillcolor="#7eeed9"] ;
807 -> 808 ;
809 [label="gini = 0.44\nsamples = 3\nvalue = [0, 0, 1, 2, 0]", fillcolor="#9e9cf2"] ;
807 -> 809 ;
810 [label="X[14] <= 0.5\ngini = 0.44\nsamples = 2\nvalue = [0, 2, 0, 1, 0]", fillcolor="#bdf29c"] ;
796 -> 810 ;
811 [label="gini = 0.0\nsamples = 1\nvalue = [0, 0, 0, 1, 0]", fillcolor="#3c39e5"] ;
810 -> 811 ;
812 [label="gini = 0.0\nsamples = 1\nvalue = [0, 2, 0, 0, 0]", fillcolor="#7be539"] ;
810 -> 812 ;
813 [label="X[26] <= 6869.5\ngini = 0.64\nsamples = 253\nvalue = [13, 29, 158, 186, 24]", fillcolor="#e9e9fc"] ;
795 -> 813 ;
814 [label="X[2] <= 80.5\ngini = 0.58\nsamples = 111\nvalue = [0, 13, 63, 100, 7]", fillcolor="#c3c2f7"] ;
813 -> 814 ;
815 [label="X[2] <= 72.5\ngini = 0.57\nsamples = 106\nvalue = [0, 12, 56, 99, 7]", fillcolor="#b8b7f6"] ;
814 -> 815 ;
816 [label="X[2] <= 70.5\ngini = 0.59\nsamples = 80\nvalue = [0, 10, 53, 67, 5]", fillcolor="#deddfb"] ;
815 -> 816 ;
817 [label="gini = 0.59\nsamples = 77\nvalue = [0, 10, 47, 67, 5]", fillcolor="#cfcff9"] ;
816 -> 817 ;
818 [label="gini = 0.0\nsamples = 3\nvalue = [0, 0, 6, 0, 0]", fillcolor="#39e5c5"] ;
816 -> 818 ;
819 [label="X[26] <= 6717.5\ngini = 0.32\nsamples = 26\nvalue = [0, 2, 3, 32, 2]", fillcolor="#6260ea"] ;
815 -> 819 ;
820 [label="gini = 0.2\nsamples = 24\nvalue = [0, 2, 2, 32, 0]", fillcolor="#5350e8"] ;
819 -> 820 ;
821 [label="gini = 0.44\nsamples = 2\nvalue = [0, 0, 1, 0, 2]", fillcolor="#f29ce0"] ;
819 -> 821 ;
822 [label="X[26] <= 3596.5\ngini = 0.37\nsamples = 5\nvalue = [0, 1, 7, 1, 0]", fillcolor="#6aecd4"] ;
814 -> 822 ;
823 [label="gini = 0.0\nsamples = 3\nvalue = [0, 0, 7, 0, 0]", fillcolor="#39e5c5"] ;
822 -> 823 ;
824 [label="X[26] <= 4874.5\ngini = 0.5\nsamples = 2\nvalue = [0, 1, 0, 1, 0]", fillcolor="#ffffff"] ;
822 -> 824 ;
825 [label="gini = 0.0\nsamples = 1\nvalue = [0, 0, 0, 1, 0]", fillcolor="#3c39e5"] ;
824 -> 825 ;
826 [label="gini = 0.0\nsamples = 1\nvalue = [0, 1, 0, 0, 0]", fillcolor="#7be539"] ;
824 -> 826 ;
827 [label="X[26] <= 12766.5\ngini = 0.67\nsamples = 142\nvalue = [13, 16, 95, 86, 17]", fillcolor="#f2fdfb"] ;
813 -> 827 ;
828 [label="X[26] <= 12533.5\ngini = 0.66\nsamples = 110\nvalue = [12, 14, 82, 61, 9]", fillcolor="#dbfaf5"] ;
827 -> 828 ;
829 [label="X[26] <= 10027.0\ngini = 0.67\nsamples = 105\nvalue = [12, 14, 69, 59, 9]", fillcolor="#ecfcf9"] ;
828 -> 829 ;
830 [label="gini = 0.59\nsamples = 61\nvalue = [5, 4, 52, 34, 3]", fillcolor="#c7f8ef"] ;
829 -> 830 ;
831 [label="gini = 0.74\nsamples = 44\nvalue = [7, 10, 17, 25, 6]", fillcolor="#dedefb"] ;
829 -> 831 ;
832 [label="X[2] <= 81.5\ngini = 0.23\nsamples = 5\nvalue = [0, 0, 13, 2, 0]", fillcolor="#57e9ce"] ;
828 -> 832 ;
833 [label="gini = 0.0\nsamples = 4\nvalue = [0, 0, 13, 0, 0]", fillcolor="#39e5c5"] ;
832 -> 833 ;
834 [label="gini = 0.0\nsamples = 1\nvalue = [0, 0, 0, 2, 0]", fillcolor="#3c39e5"] ;
832 -> 834 ;
835 [label="X[23] <= 0.5\ngini = 0.64\nsamples = 32\nvalue = [1, 2, 13, 25, 8]", fillcolor="#bebdf6"] ;
827 -> 835 ;
836 [label="X[26] <= 12804.5\ngini = 0.59\nsamples = 29\nvalue = [1, 2, 10, 25, 5]", fillcolor="#a6a5f3"] ;
835 -> 836 ;
837 [label="gini = 0.0\nsamples = 1\nvalue = [0, 0, 0, 0, 2]", fillcolor="#e539c0"] ;
836 -> 837 ;
838 [label="gini = 0.56\nsamples = 28\nvalue = [1, 2, 10, 25, 3]", fillcolor="#a19ff2"] ;
836 -> 838 ;
839 [label="X[2] <= 31.5\ngini = 0.5\nsamples = 3\nvalue = [0, 0, 3, 0, 3]", fillcolor="#ffffff"] ;
835 -> 839 ;
840 [label="gini = 0.0\nsamples = 1\nvalue = [0, 0, 0, 0, 3]", fillcolor="#e539c0"] ;
839 -> 840 ;
841 [label="gini = 0.0\nsamples = 2\nvalue = [0, 0, 3, 0, 0]", fillcolor="#39e5c5"] ;
839 -> 841 ;
842 [label="X[22] <= 0.5\ngini = 0.56\nsamples = 1131\nvalue = [20, 51, 713, 935, 47]", fillcolor="#d6d5fa"] ;
794 -> 842 ;
843 [label="X[26] <= 14341.5\ngini = 0.55\nsamples = 1124\nvalue = [20, 51, 702, 934, 46]", fillcolor="#d4d3f9"] ;
842 -> 843 ;
844 [label="X[26] <= 14055.0\ngini = 0.55\nsamples = 1119\nvalue = [20, 51, 694, 932, 46]", fillcolor="#d3d2f9"] ;
843 -> 844 ;
845 [label="X[26] <= 13308.5\ngini = 0.56\nsamples = 1101\nvalue = [20, 50, 690, 906, 46]", fillcolor="#d6d5fa"] ;
844 -> 845 ;
846 [label="X[13] <= 0.5\ngini = 0.55\nsamples = 1047\nvalue = [15, 50, 640, 877, 43]", fillcolor="#d0cff9"] ;
845 -> 846 ;
847 [label="gini = 0.55\nsamples = 1029\nvalue = [13, 48, 624, 870, 40]", fillcolor="#cecdf8"] ;
846 -> 847 ;
848 [label="gini = 0.64\nsamples = 18\nvalue = [2, 2, 16, 7, 3]", fillcolor="#b2f5e8"] ;
846 -> 848 ;
849 [label="X[26] <= 13407.0\ngini = 0.55\nsamples = 54\nvalue = [5, 0, 50, 29, 3]", fillcolor="#b7f6ea"] ;
845 -> 849 ;
850 [label="gini = 0.59\nsamples = 4\nvalue = [5, 0, 2, 0, 2]", fillcolor="#f4c9aa"] ;
849 -> 850 ;
851 [label="gini = 0.48\nsamples = 50\nvalue = [0, 0, 48, 29, 1]", fillcolor="#b2f5e9"] ;
849 -> 851 ;
852 [label="X[1] <= 9250000.0\ngini = 0.28\nsamples = 18\nvalue = [0, 1, 4, 26, 0]", fillcolor="#605eea"] ;
844 -> 852 ;
853 [label="X[2] <= 96.5\ngini = 0.24\nsamples = 17\nvalue = [0, 1, 3, 26, 0]", fillcolor="#5956e9"] ;
852 -> 853 ;
854 [label="gini = 0.09\nsamples = 10\nvalue = [0, 1, 0, 20, 0]", fillcolor="#4643e6"] ;
853 -> 854 ;
855 [label="gini = 0.44\nsamples = 7\nvalue = [0, 0, 3, 6, 0]", fillcolor="#9e9cf2"] ;
853 -> 855 ;
856 [label="gini = 0.0\nsamples = 1\nvalue = [0, 0, 1, 0, 0]", fillcolor="#39e5c5"] ;
852 -> 856 ;
857 [label="X[21] <= 0.5\ngini = 0.32\nsamples = 5\nvalue = [0, 0, 8, 2, 0]", fillcolor="#6aecd4"] ;
843 -> 857 ;
858 [label="gini = 0.0\nsamples = 4\nvalue = [0, 0, 8, 0, 0]", fillcolor="#39e5c5"] ;
857 -> 858 ;
859 [label="gini = 0.0\nsamples = 1\nvalue = [0, 0, 0, 2, 0]", fillcolor="#3c39e5"] ;
857 -> 859 ;
860 [label="X[15] <= 0.5\ngini = 0.27\nsamples = 7\nvalue = [0, 0, 11, 1, 1]", fillcolor="#5ae9cf"] ;
842 -> 860 ;
861 [label="X[9] <= 0.5\ngini = 0.15\nsamples = 6\nvalue = [0, 0, 11, 0, 1]", fillcolor="#4be7ca"] ;
860 -> 861 ;
862 [label="gini = 0.0\nsamples = 5\nvalue = [0, 0, 11, 0, 0]", fillcolor="#39e5c5"] ;
861 -> 862 ;
863 [label="gini = 0.0\nsamples = 1\nvalue = [0, 0, 0, 0, 1]", fillcolor="#e539c0"] ;
861 -> 863 ;
864 [label="gini = 0.0\nsamples = 1\nvalue = [0, 0, 0, 1, 0]", fillcolor="#3c39e5"] ;
860 -> 864 ;
865 [label="X[1] <= 35500000.0\ngini = 0.67\nsamples = 1385\nvalue = [67, 144, 627, 1016, 326]", fillcolor="#cecdf8"] ;
675 -> 865 ;
866 [label="X[5] <= 0.5\ngini = 0.67\nsamples = 1264\nvalue = [62, 137, 535, 945, 319]", fillcolor="#c8c8f8"] ;
865 -> 866 ;
867 [label="X[14] <= 0.5\ngini = 0.67\nsamples = 1007\nvalue = [51, 101, 387, 782, 280]", fillcolor="#c0bff7"] ;
866 -> 867 ;
868 [label="X[2] <= 122.5\ngini = 0.64\nsamples = 565\nvalue = [25, 52, 165, 478, 193]", fillcolor="#b2b1f5"] ;
867 -> 868 ;
869 [label="X[2] <= 65.5\ngini = 0.66\nsamples = 495\nvalue = [23, 50, 156, 399, 176]", fillcolor="#bab9f6"] ;
868 -> 869 ;
870 [label="X[2] <= 51.5\ngini = 0.74\nsamples = 18\nvalue = [3, 3, 11, 5, 11]", fillcolor="#ffffff"] ;
869 -> 870 ;
871 [label="X[10] <= 0.5\ngini = 0.75\nsamples = 14\nvalue = [3, 3, 9, 5, 3]", fillcolor="#d3f9f2"] ;
870 -> 871 ;
872 [label="gini = 0.7\nsamples = 11\nvalue = [3, 2, 9, 2, 3]", fillcolor="#b5f5e9"] ;
871 -> 872 ;
873 [label="gini = 0.38\nsamples = 3\nvalue = [0, 1, 0, 3, 0]", fillcolor="#7d7bee"] ;
871 -> 873 ;
874 [label="X[2] <= 62.5\ngini = 0.32\nsamples = 4\nvalue = [0, 0, 2, 0, 8]", fillcolor="#ec6ad0"] ;
870 -> 874 ;
875 [label="gini = 0.0\nsamples = 3\nvalue = [0, 0, 0, 0, 8]", fillcolor="#e539c0"] ;
874 -> 875 ;
876 [label="gini = 0.0\nsamples = 1\nvalue = [0, 0, 2, 0, 0]", fillcolor="#39e5c5"] ;
874 -> 876 ;
877 [label="X[1] <= 17500000.0\ngini = 0.65\nsamples = 477\nvalue = [20, 47, 145, 394, 165]", fillcolor="#b5b4f5"] ;
869 -> 877 ;
878 [label="X[1] <= 11500000.0\ngini = 0.66\nsamples = 439\nvalue = [20, 45, 131, 349, 160]", fillcolor="#bbbaf6"] ;
877 -> 878 ;
879 [label="gini = 0.66\nsamples = 405\nvalue = [19, 42, 109, 328, 149]", fillcolor="#b9b8f6"] ;
878 -> 879 ;
880 [label="gini = 0.69\nsamples = 34\nvalue = [1, 3, 22, 21, 11]", fillcolor="#fafefd"] ;
878 -> 880 ;
881 [label="X[2] <= 95.5\ngini = 0.48\nsamples = 38\nvalue = [0, 2, 14, 45, 5]", fillcolor="#8b89f0"] ;
877 -> 881 ;
882 [label="gini = 0.0\nsamples = 10\nvalue = [0, 0, 0, 20, 0]", fillcolor="#3c39e5"] ;
881 -> 882 ;
883 [label="gini = 0.6\nsamples = 28\nvalue = [0, 2, 14, 25, 5]", fillcolor="#bcbbf6"] ;
881 -> 883 ;
884 [label="X[2] <= 134.5\ngini = 0.44\nsamples = 70\nvalue = [2, 2, 9, 79, 17]", fillcolor="#7c7aed"] ;
868 -> 884 ;
885 [label="X[26] <= 14127.0\ngini = 0.26\nsamples = 41\nvalue = [1, 0, 5, 54, 3]", fillcolor="#5a58e9"] ;
884 -> 885 ;
886 [label="X[3] <= 0.5\ngini = 0.23\nsamples = 40\nvalue = [1, 0, 5, 54, 2]", fillcolor="#5755e9"] ;
885 -> 886 ;
887 [label="gini = 0.21\nsamples = 38\nvalue = [1, 0, 5, 53, 1]", fillcolor="#5552e8"] ;
886 -> 887 ;
888 [label="gini = 0.5\nsamples = 2\nvalue = [0, 0, 0, 1, 1]", fillcolor="#ffffff"] ;
886 -> 888 ;
889 [label="gini = 0.0\nsamples = 1\nvalue = [0, 0, 0, 0, 1]", fillcolor="#e539c0"] ;
885 -> 889 ;
890 [label="X[1] <= 5500000.0\ngini = 0.6\nsamples = 29\nvalue = [1, 2, 4, 25, 14]", fillcolor="#bcbbf6"] ;
884 -> 890 ;
891 [label="X[19] <= 0.5\ngini = 0.64\nsamples = 15\nvalue = [1, 1, 3, 6, 12]", fillcolor="#f6b9e9"] ;
890 -> 891 ;
892 [label="gini = 0.52\nsamples = 12\nvalue = [1, 1, 1, 3, 12]", fillcolor="#ef88d9"] ;
891 -> 892 ;
893 [label="gini = 0.48\nsamples = 3\nvalue = [0, 0, 2, 3, 0]", fillcolor="#bebdf6"] ;
891 -> 893 ;
894 [label="X[1] <= 31000000.0\ngini = 0.31\nsamples = 14\nvalue = [0, 1, 1, 19, 2]", fillcolor="#615fea"] ;
890 -> 894 ;
895 [label="gini = 0.17\nsamples = 12\nvalue = [0, 0, 0, 19, 2]", fillcolor="#514ee8"] ;
894 -> 895 ;
896 [label="gini = 0.5\nsamples = 2\nvalue = [0, 1, 1, 0, 0]", fillcolor="#ffffff"] ;
894 -> 896 ;
897 [label="X[26] <= 9338.0\ngini = 0.68\nsamples = 442\nvalue = [26, 49, 222, 304, 87]", fillcolor="#dddcfa"] ;
867 -> 897 ;
898 [label="X[19] <= 0.5\ngini = 0.66\nsamples = 305\nvalue = [18, 29, 133, 228, 58]", fillcolor="#c7c7f8"] ;
897 -> 898 ;
899 [label="X[21] <= 0.5\ngini = 0.65\nsamples = 268\nvalue = [17, 22, 105, 205, 57]", fillcolor="#bebdf6"] ;
898 -> 899 ;
900 [label="X[2] <= 140.0\ngini = 0.64\nsamples = 254\nvalue = [16, 19, 98, 202, 51]", fillcolor="#b9b8f6"] ;
899 -> 900 ;
